{"learner":{"attributes":{},"feature_names":["Volume","SMA_5","EMA_5","SMA_10","EMA_10","SMA_15","EMA_15","SMA_20","EMA_20","SMA_25","EMA_25","SMA_30","EMA_30","SMA_35","EMA_35","SMA_40","EMA_40","SMA_45","EMA_45","ATR","BBANDS_L","BBANDS_M","BBANDS_U","RSI","MACD"],"feature_types":[],"gradient_booster":{"model":{"gbtree_model_param":{"num_parallel_tree":"1","num_trees":"100"},"iteration_indptr":[0,1,2,3,4,5,6,7,8,9,10,11,12,13,14,15,16,17,18,19,20,21,22,23,24,25,26,27,28,29,30,31,32,33,34,35,36,37,38,39,40,41,42,43,44,45,46,47,48,49,50,51,52,53,54,55,56,57,58,59,60,61,62,63,64,65,66,67,68,69,70,71,72,73,74,75,76,77,78,79,80,81,82,83,84,85,86,87,88,89,90,91,92,93,94,95,96,97,98,99,100],"tree_info":[0,0,0,0,0,0,0,0,0,0,0,0,0,0,0,0,0,0,0,0,0,0,0,0,0,0,0,0,0,0,0,0,0,0,0,0,0,0,0,0,0,0,0,0,0,0,0,0,0,0,0,0,0,0,0,0,0,0,0,0,0,0,0,0,0,0,0,0,0,0,0,0,0,0,0,0,0,0,0,0,0,0,0,0,0,0,0,0,0,0,0,0,0,0,0,0,0,0,0,0],"trees":[{"base_weights":[-1.0396409E-2,5.7386297E-1,-2.548829E-1,2.975942E-1,7.9621994E-1,-5.7319127E-2,-6.336075E-1,3.9693764E-3,-6.8229716E-3,1.1352087E-2,5.393992E-3,-4.297478E-3,1.2372221E-3,-7.103429E-3,1.4683792E-4],"categories":[],"categories_nodes":[],"categories_segments":[],"categories_sizes":[],"default_left":[0,0,0,0,0,0,0,0,0,0,0,0,0,0,0],"id":0,"left_children":[1,3,5,7,9,11,13,-1,-1,-1,-1,-1,-1,-1,-1],"loss_changes":[1.097074E2,1.3681854E1,4.047411E1,1.0262137E1,1.0264999E1,2.4117872E1,9.239052E0,0E0,0E0,0E0,0E0,0E0,0E0,0E0,0E0],"parents":[2147483647,0,0,1,1,2,2,3,3,4,4,5,5,6,6],"right_children":[2,4,6,8,10,12,14,-1,-1,-1,-1,-1,-1,-1,-1],"split_conditions":[-5.395637E-1,-3.970611E-1,5.6360364E-1,-4.6177572E-1,6.3973926E-2,-5.5787706E-1,6.424586E-1,3.9693764E-3,-6.8229716E-3,1.1352087E-2,5.393992E-3,-4.297478E-3,1.2372221E-3,-7.103429E-3,1.4683792E-4],"split_indices":[19,6,19,9,6,0,23,0,0,0,0,0,0,0,0],"split_type":[0,0,0,0,0,0,0,0,0,0,0,0,0,0,0],"sum_hessian":[7.66001E2,2.2557881E2,5.404222E2,1.0163729E2,1.2394152E2,3.5591074E2,1.8451143E2,9.282175E1,8.815548E0,5.1950104E1,7.199142E1,1.1596987E2,2.3994086E2,1.6489752E2,1.9613916E1],"tree_param":{"num_deleted":"0","num_feature":"25","num_nodes":"15","size_leaf_vector":"1"}},{"base_weights":[1.6618703E-2,5.096763E-1,-2.256614E-1,-1.3897291E-1,6.150354E-1,-3.8684487E-1,3.3170518E-1,4.1385638E-3,-5.092697E-3,2.1588493E-3,7.8033186E-3,-6.583378E-3,-2.576373E-3,9.4080245E-4,1.026131E-2],"categories":[],"categories_nodes":[],"categories_segments":[],"categories_sizes":[],"default_left":[0,0,0,0,0,0,0,0,0,0,0,0,0,0,0],"id":1,"left_children":[1,3,5,7,9,11,13,-1,-1,-1,-1,-1,-1,-1,-1],"loss_changes":[9.195863E1,1.7418427E1,4.650391E1,7.632577E0,1.4239105E1,1.3892769E1,1.910004E1,0E0,0E0,0E0,0E0,0E0,0E0,0E0,0E0],"parents":[2147483647,0,0,1,1,2,2,3,3,4,4,5,5,6,6],"right_children":[2,4,6,8,10,12,14,-1,-1,-1,-1,-1,-1,-1,-1],"split_conditions":[-4.769292E-1,-7.983263E-1,3.225184E-1,-7.6955664E-1,-5.009394E-1,-8.138662E-1,3.063127E-1,4.1385638E-3,-5.092697E-3,2.1588493E-3,7.8033186E-3,-6.583378E-3,-2.576373E-3,9.4080245E-4,1.026131E-2],"split_indices":[19,0,7,7,21,24,23,0,0,0,0,0,0,0,0],"split_type":[0,0,0,0,0,0,0,0,0,0,0,0,0,0,0],"sum_hessian":[7.678359E2,2.5262402E2,5.1521185E2,3.525509E1,2.1736893E2,3.9987805E2,1.15333824E2,1.40948105E1,2.1160278E1,6.433111E1,1.5303783E2,1.2762185E2,2.722562E2,8.677563E1,2.8558191E1],"tree_param":{"num_deleted":"0","num_feature":"25","num_nodes":"15","size_leaf_vector":"1"}},{"base_weights":[1.6042026E-2,4.2957297E-1,-2.7396914E-1,1.1914767E-1,6.491653E-1,-5.0379944E-1,1.4598796E-1,-5.7784813E-3,1.7686269E-3,1.40235955E-2,5.7422374E-3,-8.770045E-3,-3.9417767E-3,-1.5605652E-3,4.221889E-3],"categories":[],"categories_nodes":[],"categories_segments":[],"categories_sizes":[],"default_left":[0,0,0,0,0,0,0,0,0,0,0,0,0,0,0],"id":2,"left_children":[1,3,5,7,9,11,13,-1,-1,-1,-1,-1,-1,-1,-1],"loss_changes":[9.098432E1,2.123944E1,4.3116978E1,5.3633356E0,9.520218E0,1.1455086E1,1.3289684E1,0E0,0E0,0E0,0E0,0E0,0E0,0E0,0E0],"parents":[2147483647,0,0,1,1,2,2,3,3,4,4,5,5,6,6],"right_children":[2,4,6,8,10,12,14,-1,-1,-1,-1,-1,-1,-1,-1],"split_conditions":[-3.571377E-1,1.4763443E-1,-4.318573E-2,-1.0077649E0,-1.0484772E0,-1.2915957E0,-3.871777E-1,-5.7784813E-3,1.7686269E-3,1.40235955E-2,5.7422374E-3,-8.770045E-3,-3.9417767E-3,-1.5605652E-3,4.221889E-3],"split_indices":[19,23,3,19,19,24,23,0,0,0,0,0,0,0,0],"split_type":[0,0,0,0,0,0,0,0,0,0,0,0,0,0,0],"sum_hessian":[7.566728E2,3.1171408E2,4.4495868E2,1.297858E2,1.819283E2,2.8744742E2,1.5751126E2,9.235929E0,1.20549866E2,1.4860569E1,1.6706773E2,6.3673164E1,2.2377426E2,7.544358E1,8.206768E1],"tree_param":{"num_deleted":"0","num_feature":"25","num_nodes":"15","size_leaf_vector":"1"}},{"base_weights":[-2.808861E-2,2.6360035E-1,-3.3737162E-1,-1.421369E-1,4.803034E-1,-5.053277E-1,3.3321563E-2,3.048859E-3,-3.4001698E-3,-2.0290744E-3,6.056598E-3,-7.462617E-3,-3.8721068E-3,-9.510605E-4,1.08011635E-2],"categories":[],"categories_nodes":[],"categories_segments":[],"categories_sizes":[],"default_left":[0,0,0,0,0,0,0,0,0,0,0,0,0,0,0],"id":3,"left_children":[1,3,5,7,9,11,13,-1,-1,-1,-1,-1,-1,-1,-1],"loss_changes":[6.934386E1,3.4854156E1,2.3242153E1,1.235599E1,2.2229683E1,7.0186386E0,1.5866117E1,0E0,0E0,0E0,0E0,0E0,0E0,0E0,0E0],"parents":[2147483647,0,0,1,1,2,2,3,3,4,4,5,5,6,6],"right_children":[2,4,6,8,10,12,14,-1,-1,-1,-1,-1,-1,-1,-1],"split_conditions":[-1.6140358E-1,-1.2832573E-1,4.2051785E-2,-6.5857273E-1,-7.844819E-1,-1.034216E0,7.890064E-1,3.048859E-3,-3.4001698E-3,-2.0290744E-3,6.056598E-3,-7.462617E-3,-3.8721068E-3,-9.510605E-4,1.08011635E-2],"split_indices":[19,23,17,19,0,24,24,0,0,0,0,0,0,0,0],"split_type":[0,0,0,0,0,0,0,0,0,0,0,0,0,0,0],"sum_hessian":[7.6667004E2,3.9463354E2,3.720365E2,1.3751176E2,2.5712177E2,2.5578195E2,1.1625454E2,4.202777E1,9.5483986E1,3.9767014E1,2.1735477E2,8.23951E1,1.7338686E2,1.0436011E2,1.1894432E1],"tree_param":{"num_deleted":"0","num_feature":"25","num_nodes":"15","size_leaf_vector":"1"}},{"base_weights":[4.4202353E-3,4.3068582E-1,-2.5597683E-1,-3.0525285E-1,5.664589E-1,-4.1505352E-1,2.6893333E-1,1.1305474E-3,-8.085094E-3,2.3804035E-3,6.9029504E-3,-2.300765E-3,-5.9237895E-3,3.5144025E-3,-5.6670555E-3],"categories":[],"categories_nodes":[],"categories_segments":[],"categories_sizes":[],"default_left":[0,0,0,0,0,0,0,0,0,0,0,0,0,0,0],"id":4,"left_children":[1,3,5,7,9,11,13,-1,-1,-1,-1,-1,-1,-1,-1],"loss_changes":[8.3829895E1,2.8789944E1,3.9260628E1,9.618847E0,9.68354E0,1.1678604E1,7.7589097E0,0E0,0E0,0E0,0E0,0E0,0E0,0E0,0E0],"parents":[2147483647,0,0,1,1,2,2,3,3,4,4,5,5,6,6],"right_children":[2,4,6,8,10,12,14,-1,-1,-1,-1,-1,-1,-1,-1],"split_conditions":[-3.8141176E-1,-7.844819E-1,2.2446054E-1,3.7003288E-1,-5.2183425E-1,3.27938E-1,1.7294055E0,1.1305474E-3,-8.085094E-3,2.3804035E-3,6.9029504E-3,-2.300765E-3,-5.9237895E-3,3.5144025E-3,-5.6670555E-3],"split_indices":[19,0,20,24,1,19,19,0,0,0,0,0,0,0,0],"split_type":[0,0,0,0,0,0,0,0,0,0,0,0,0,0,0],"sum_hessian":[7.532426E2,2.853976E2,4.6784503E2,4.425755E1,2.4114006E2,3.5919766E2,1.0864738E2,2.4592001E1,1.966555E1,6.6829025E1,1.7431104E2,1.7693031E2,1.8226733E2,9.9411415E1,9.235964E0],"tree_param":{"num_deleted":"0","num_feature":"25","num_nodes":"15","size_leaf_vector":"1"}},{"base_weights":[9.954696E-3,4.1889307E-1,-2.8588343E-1,-1.3090006E-1,5.776104E-1,-5.072008E-1,1.2533718E-1,2.849067E-3,-4.6124063E-3,5.1408616E-4,6.611873E-3,-3.1670572E-3,-7.1886745E-3,-2.4799332E-3,3.6761593E-3],"categories":[],"categories_nodes":[],"categories_segments":[],"categories_sizes":[],"default_left":[0,0,0,0,0,0,0,0,0,0,0,0,0,0,0],"id":5,"left_children":[1,3,5,7,9,11,13,-1,-1,-1,-1,-1,-1,-1,-1],"loss_changes":[9.149368E1,2.7776379E1,4.000243E1,1.001126E1,1.0807426E1,1.1283813E1,1.4051799E1,0E0,0E0,0E0,0E0,0E0,0E0,0E0,0E0],"parents":[2147483647,0,0,1,1,2,2,3,3,4,4,5,5,6,6],"right_children":[2,4,6,8,10,12,14,-1,-1,-1,-1,-1,-1,-1,-1],"split_conditions":[-3.2033807E-1,-7.268249E-1,-3.1287313E-2,-7.360697E-1,-2.4794242E-1,6.1371195E-1,-5.655842E-1,2.849067E-3,-4.6124063E-3,5.1408616E-4,6.611873E-3,-3.1670572E-3,-7.1886745E-3,-2.4799332E-3,3.6761593E-3],"split_indices":[19,0,20,20,24,19,23,0,0,0,0,0,0,0,0],"split_type":[0,0,0,0,0,0,0,0,0,0,0,0,0,0,0],"sum_hessian":[7.5428394E2,3.1644485E2,4.378391E2,7.092781E1,2.4551706E2,2.844928E2,1.5334631E2,3.146264E1,3.9465164E1,3.3872192E1,2.1164485E2,1.5104874E2,1.3344406E2,6.0341583E1,9.300473E1],"tree_param":{"num_deleted":"0","num_feature":"25","num_nodes":"15","size_leaf_vector":"1"}},{"base_weights":[2.5111204E-2,2.451771E-1,-5.053087E-1,5.2738154E-1,2.5256146E-2,-6.5586984E-1,-3.7927628E-2,-4.867901E-4,6.2807226E-3,-2.9487237E-3,2.0056292E-3,-5.7252394E-3,-1.0584284E-2,2.9194464E-3,-4.980826E-3],"categories":[],"categories_nodes":[],"categories_segments":[],"categories_sizes":[],"default_left":[0,0,0,0,0,0,0,0,0,0,0,0,0,0,0],"id":6,"left_children":[1,3,5,7,9,11,13,-1,-1,-1,-1,-1,-1,-1,-1],"loss_changes":[8.7546814E1,3.288037E1,1.5452335E1,1.3492279E1,1.6835028E1,4.9733887E0,8.440887E0,0E0,0E0,0E0,0E0,0E0,0E0,0E0,0E0],"parents":[2147483647,0,0,1,1,2,2,3,3,4,4,5,5,6,6],"right_children":[2,4,6,8,10,12,14,-1,-1,-1,-1,-1,-1,-1,-1],"split_conditions":[3.27938E-1,-5.184239E-1,2.0241153E-1,-7.844819E-1,-5.184981E-1,2.2986047E0,2.1981246E0,-4.867901E-4,6.2807226E-3,-2.9487237E-3,2.0056292E-3,-5.7252394E-3,-1.0584284E-2,2.9194464E-3,-4.980826E-3],"split_indices":[19,19,15,0,0,19,15,0,0,0,0,0,0,0,0],"split_type":[0,0,0,0,0,0,0,0,0,0,0,0,0,0,0],"sum_hessian":[7.4794995E2,5.290077E2,2.1894223E2,2.3108255E2,2.9792514E2,1.6529208E2,5.3650143E1,3.4458576E1,1.9662398E2,1.0517767E2,1.9274747E2,1.3894672E2,2.6345371E1,3.1461687E1,2.2188457E1],"tree_param":{"num_deleted":"0","num_feature":"25","num_nodes":"15","size_leaf_vector":"1"}},{"base_weights":[-2.0411227E-2,3.5918003E-1,-2.6577604E-1,1.1859466E-3,5.4045916E-1,-4.6988282E-1,8.9040354E-2,-2.1395085E-3,3.1503902E-3,6.5690945E-3,1.7769758E-3,-6.5515E-3,-2.6965996E-3,-3.864431E-3,4.031193E-3],"categories":[],"categories_nodes":[],"categories_segments":[],"categories_sizes":[],"default_left":[0,0,0,0,0,0,0,0,0,0,0,0,0,0,0],"id":7,"left_children":[1,3,5,7,9,11,13,-1,-1,-1,-1,-1,-1,-1,-1],"loss_changes":[7.18161E1,1.9647095E1,3.395566E1,7.0068483E0,8.373367E0,1.0856796E1,2.5819818E1,0E0,0E0,0E0,0E0,0E0,0E0,0E0,0E0],"parents":[2147483647,0,0,1,1,2,2,3,3,4,4,5,5,6,6],"right_children":[2,4,6,8,10,12,14,-1,-1,-1,-1,-1,-1,-1,-1],"split_conditions":[-3.3834663E-1,-5.7369515E-2,-1.04673505E-1,-4.7278035E-1,8.930114E-2,-6.871416E-1,-6.06082E-1,-2.1395085E-3,3.1503902E-3,6.5690945E-3,1.7769758E-3,-6.5515E-3,-2.6965996E-3,-3.864431E-3,4.031193E-3],"split_indices":[19,23,20,3,0,0,23,0,0,0,0,0,0,0,0],"split_type":[0,0,0,0,0,0,0,0,0,0,0,0,0,0,0],"sum_hessian":[7.690441E2,3.017533E2,4.672908E2,1.01774086E2,1.999792E2,2.9644034E2,1.7085046E2,6.057207E1,4.120202E1,1.507697E2,4.920951E1,1.5279048E2,1.4364987E2,6.787072E1,1.02979744E2],"tree_param":{"num_deleted":"0","num_feature":"25","num_nodes":"15","size_leaf_vector":"1"}},{"base_weights":[-2.8696803E-2,5.1154304E-1,-2.4574853E-1,2.3601641E-1,8.2889867E-1,-4.5529246E-1,9.956586E-2,-2.26673E-3,3.500002E-3,1.3579583E-2,5.257196E-3,8.670339E-4,-5.6591975E-3,-1.0790263E-3,6.069369E-3],"categories":[],"categories_nodes":[],"categories_segments":[],"categories_sizes":[],"default_left":[0,0,0,0,0,0,0,0,0,0,0,0,0,0,0],"id":8,"left_children":[1,3,5,7,9,11,13,-1,-1,-1,-1,-1,-1,-1,-1],"loss_changes":[8.965983E1,1.8968628E1,3.9508335E1,6.340249E0,1.5559586E1,2.0411087E1,2.183246E1,0E0,0E0,0E0,0E0,0E0,0E0,0E0,0E0],"parents":[2147483647,0,0,1,1,2,2,3,3,4,4,5,5,6,6],"right_children":[2,4,6,8,10,12,14,-1,-1,-1,-1,-1,-1,-1,-1],"split_conditions":[-5.395637E-1,-3.2295746E-1,-4.7746073E-2,-7.488085E-1,6.770092E-2,-3.1495726E-1,2.1782666E-1,-2.26673E-3,3.500002E-3,1.3579583E-2,5.257196E-3,8.670339E-4,-5.6591975E-3,-1.0790263E-3,6.069369E-3],"split_indices":[19,2,22,23,4,19,23,0,0,0,0,0,0,0,0],"split_type":[0,0,0,0,0,0,0,0,0,0,0,0,0,0,0],"sum_hessian":[7.625521E2,2.1817062E2,5.4438153E2,1.1771486E2,1.0045577E2,3.3859598E2,2.0578552E2,2.3071812E1,9.464305E1,3.5327972E1,6.512779E1,5.7432667E1,2.8116333E2,1.4661903E2,5.916649E1],"tree_param":{"num_deleted":"0","num_feature":"25","num_nodes":"15","size_leaf_vector":"1"}},{"base_weights":[-5.016811E-2,3.6625114E-1,-3.295341E-1,1.1676557E-1,5.85684E-1,-4.7099736E-1,1.3809077E-1,-4.7407835E-3,2.7496968E-3,3.320006E-3,9.619429E-3,-3.8334632E-3,-8.305272E-3,-3.8740668E-4,7.473485E-3],"categories":[],"categories_nodes":[],"categories_segments":[],"categories_sizes":[],"default_left":[0,0,0,0,0,0,0,0,0,0,0,0,0,0,0],"id":9,"left_children":[1,3,5,7,9,11,13,-1,-1,-1,-1,-1,-1,-1,-1],"loss_changes":[8.721981E1,1.64147E1,2.9741772E1,1.3417128E1,1.4947247E1,1.0542625E1,1.1337587E1,0E0,0E0,0E0,0E0,0E0,0E0,0E0,0E0],"parents":[2147483647,0,0,1,1,2,2,3,3,4,4,5,5,6,6],"right_children":[2,4,6,8,10,12,14,-1,-1,-1,-1,-1,-1,-1,-1],"split_conditions":[-3.5244203E-1,-4.6172714E-1,2.9449308E-1,-8.210597E-1,7.7434707E-1,1.5275385E0,3.063127E-1,-4.7407835E-3,2.7496968E-3,3.320006E-3,9.619429E-3,-3.8334632E-3,-8.305272E-3,-3.8740668E-4,7.473485E-3],"split_indices":[19,15,2,23,24,0,23,0,0,0,0,0,0,0,0],"split_type":[0,0,0,0,0,0,0,0,0,0,0,0,0,0,0],"sum_hessian":[7.477027E2,3.000866E2,4.476161E2,1.4114409E2,1.5894252E2,3.4364984E2,1.0396623E2,2.9388906E1,1.1175518E2,9.605927E1,6.2883244E1,2.7795297E2,6.569689E1,8.13047E1,2.2661528E1],"tree_param":{"num_deleted":"0","num_feature":"25","num_nodes":"15","size_leaf_vector":"1"}},{"base_weights":[-2.2591287E-2,4.0822202E-1,-3.1470895E-1,-1.3431925E-1,4.9781698E-1,-5.046963E-1,1.900449E-2,5.3061717E-3,-3.9717606E-3,-4.2403364E-4,5.7656155E-3,-8.35158E-3,-4.331196E-3,2.5024659E-3,-5.052892E-3],"categories":[],"categories_nodes":[],"categories_segments":[],"categories_sizes":[],"default_left":[0,0,0,0,0,0,0,0,0,0,0,0,0,0,0],"id":10,"left_children":[1,3,5,7,9,11,13,-1,-1,-1,-1,-1,-1,-1,-1],"loss_changes":[9.605294E1,1.5059341E1,2.8844105E1,7.989024E0,1.1294327E1,6.493988E0,2.024639E1,0E0,0E0,0E0,0E0,0E0,0E0,0E0,0E0],"parents":[2147483647,0,0,1,1,2,2,3,3,4,4,5,5,6,6],"right_children":[2,4,6,8,10,12,14,-1,-1,-1,-1,-1,-1,-1,-1],"split_conditions":[-3.571377E-1,-8.394094E-1,-4.318573E-2,-1.3668633E0,-8.0175656E-1,-1.1559551E0,5.870886E-1,5.3061717E-3,-3.9717606E-3,-4.2403364E-4,5.7656155E-3,-8.35158E-3,-4.331196E-3,2.5024659E-3,-5.052892E-3],"split_indices":[19,23,3,23,13,4,19,0,0,0,0,0,0,0,0],"split_type":[0,0,0,0,0,0,0,0,0,0,0,0,0,0,0],"sum_hessian":[7.612238E2,3.074302E2,4.537936E2,4.3502457E1,2.6392773E2,2.8884058E2,1.6495303E2,1.2036255E1,3.1466202E1,3.3635548E1,2.3029219E2,4.9524296E1,2.3931627E2,1.14829605E2,5.012342E1],"tree_param":{"num_deleted":"0","num_feature":"25","num_nodes":"15","size_leaf_vector":"1"}},{"base_weights":[-5.2026954E-2,3.4940594E-1,-3.418636E-1,-4.285106E-1,5.0480425E-1,-4.9784383E-1,4.9621265E-2,-6.5285796E-3,2.3206686E-4,-1.606541E-3,6.3066687E-3,-3.8817334E-3,-9.265339E-3,-7.1144087E-4,7.445904E-3],"categories":[],"categories_nodes":[],"categories_segments":[],"categories_sizes":[],"default_left":[0,0,0,0,0,0,0,0,0,0,0,0,0,0,0],"id":11,"left_children":[1,3,5,7,9,11,13,-1,-1,-1,-1,-1,-1,-1,-1],"loss_changes":[9.258656E1,4.0557655E1,2.8237522E1,5.7008514E0,2.3436432E1,1.5177544E1,1.1177276E1,0E0,0E0,0E0,0E0,0E0,0E0,0E0,0E0],"parents":[2147483647,0,0,1,1,2,2,3,3,4,4,5,5,6,6],"right_children":[2,4,6,8,10,12,14,-1,-1,-1,-1,-1,-1,-1,-1],"split_conditions":[-3.2503733E-1,-7.844819E-1,1.1376963E-1,-7.6370806E-1,-7.936552E-1,1.5275385E0,8.0203503E-1,-6.5285796E-3,2.3206686E-4,-1.606541E-3,6.3066687E-3,-3.8817334E-3,-9.265339E-3,-7.1144087E-4,7.445904E-3],"split_indices":[19,0,3,17,23,0,24,0,0,0,0,0,0,0,0],"split_type":[0,0,0,0,0,0,0,0,0,0,0,0,0,0,0],"sum_hessian":[7.937326E2,3.3271136E2,4.6102124E2,5.5104305E1,2.7760706E2,3.2947577E2,1.3154547E2,3.6520805E1,1.85835E1,4.411052E1,2.3349654E2,2.6387494E2,6.560084E1,1.1283556E2,1.87099E1],"tree_param":{"num_deleted":"0","num_feature":"25","num_nodes":"15","size_leaf_vector":"1"}},{"base_weights":[4.6670195E-3,-3.610856E-1,2.2018243E-1,-4.5749205E-1,3.1057262E-1,-3.438505E-1,3.2375777E-1,-7.2245533E-3,-2.758945E-3,1.0996287E-2,-1.1692935E-3,3.758132E-4,-5.822949E-3,-1.7619284E-3,4.2069033E-3],"categories":[],"categories_nodes":[],"categories_segments":[],"categories_sizes":[],"default_left":[0,0,0,0,0,0,0,0,0,0,0,0,0,0,0],"id":12,"left_children":[1,3,5,7,9,11,13,-1,-1,-1,-1,-1,-1,-1,-1],"loss_changes":[6.1691868E1,1.893203E1,2.8880148E1,1.2030186E1,1.2615927E1,7.014633E0,2.0261425E1,0E0,0E0,0E0,0E0,0E0,0E0,0E0,0E0],"parents":[2147483647,0,0,1,1,2,2,3,3,4,4,5,5,6,6],"right_children":[2,4,6,8,10,12,14,-1,-1,-1,-1,-1,-1,-1,-1],"split_conditions":[-2.4794242E-1,2.880757E-1,-8.989593E-1,-1.0530322E0,1.9672958E0,3.2347465E-1,-7.983263E-1,-7.2245533E-3,-2.758945E-3,1.0996287E-2,-1.1692935E-3,3.758132E-4,-5.822949E-3,-1.7619284E-3,4.2069033E-3],"split_indices":[24,5,15,24,11,24,0,0,0,0,0,0,0,0,0],"split_type":[0,0,0,0,0,0,0,0,0,0,0,0,0,0,0],"sum_hessian":[7.8063153E2,2.891825E2,4.91449E2,2.5316354E2,3.6018963E1,7.588541E1,4.155636E2,1.0173983E2,1.514237E2,1.2104685E1,2.3914278E1,2.9514467E1,4.637094E1,6.7353874E1,3.4820972E2],"tree_param":{"num_deleted":"0","num_feature":"25","num_nodes":"15","size_leaf_vector":"1"}},{"base_weights":[-8.017335E-3,5.421873E-1,-2.1822987E-1,-6.887957E-2,6.485837E-1,-4.1216403E-1,1.4158815E-1,7.002934E-3,-4.5380197E-3,1.7730175E-3,8.2109785E-3,-2.2652675E-3,-6.820849E-3,-2.1406153E-4,7.779524E-3],"categories":[],"categories_nodes":[],"categories_segments":[],"categories_sizes":[],"default_left":[0,0,0,0,0,0,0,0,0,0,0,0,0,0,0],"id":13,"left_children":[1,3,5,7,9,11,13,-1,-1,-1,-1,-1,-1,-1,-1],"loss_changes":[8.699617E1,1.3563797E1,3.8034004E1,9.715161E0,1.4261078E1,1.757722E1,1.986287E1,0E0,0E0,0E0,0E0,0E0,0E0,0E0,0E0],"parents":[2147483647,0,0,1,1,2,2,3,3,4,4,5,5,6,6],"right_children":[2,4,6,8,10,12,14,-1,-1,-1,-1,-1,-1,-1,-1],"split_conditions":[-5.92022E-1,-7.844819E-1,-2.0270484E-2,2.0154725E-1,-1.2832573E-1,6.1371195E-1,6.850137E-1,7.002934E-3,-4.5380197E-3,1.7730175E-3,8.2109785E-3,-2.2652675E-3,-6.820849E-3,-2.1406153E-4,7.779524E-3],"split_indices":[19,0,20,23,23,19,24,0,0,0,0,0,0,0,0],"split_type":[0,0,0,0,0,0,0,0,0,0,0,0,0,0,0],"sum_hessian":[7.5014923E2,2.0693747E2,5.432118E2,3.074015E1,1.7619733E2,3.5287454E2,1.9033723E2,9.97942E0,2.076073E1,4.775791E1,1.284394E2,2.1017E2,1.4270453E2,1.5229558E2,3.804166E1],"tree_param":{"num_deleted":"0","num_feature":"25","num_nodes":"15","size_leaf_vector":"1"}},{"base_weights":[4.2862375E-3,-3.74286E-1,1.6739091E-1,-2.7178752E-1,-1.002395E0,-3.5005784E-1,3.0004194E-1,2.107654E-3,-4.412211E-3,-1.14027355E-2,-4.8734117E-3,4.6081995E-4,-5.557603E-3,-5.8220574E-3,3.5902995E-3],"categories":[],"categories_nodes":[],"categories_segments":[],"categories_sizes":[],"default_left":[0,0,0,0,0,0,0,0,0,0,0,0,0,0,0],"id":14,"left_children":[1,3,5,7,9,11,13,-1,-1,-1,-1,-1,-1,-1,-1],"loss_changes":[4.6429703E1,1.4304487E1,3.617553E1,1.612025E1,1.6736565E0,8.800831E0,2.2004917E1,0E0,0E0,0E0,0E0,0E0,0E0,0E0,0E0],"parents":[2147483647,0,0,1,1,2,2,3,3,4,4,5,5,6,6],"right_children":[2,4,6,8,10,12,14,-1,-1,-1,-1,-1,-1,-1,-1],"split_conditions":[-7.2010064E-1,2.1264677E0,-7.983263E-1,-1.3974689E0,-1.1598018E0,-7.622637E-1,-1.2243997E0,2.107654E-3,-4.412211E-3,-1.14027355E-2,-4.8734117E-3,4.6081995E-4,-5.557603E-3,-5.8220574E-3,3.5902995E-3],"split_indices":[23,0,0,23,23,2,18,0,0,0,0,0,0,0,0],"split_type":[0,0,0,0,0,0,0,0,0,0,0,0,0,0,0],"sum_hessian":[7.49921E2,2.2541933E2,5.245017E2,1.9502649E2,3.0392845E1,1.06688675E2,4.1781302E2,5.061869E1,1.4440779E2,2.301729E1,7.375555E0,3.673013E1,6.995855E1,2.5628801E1,3.9218423E2],"tree_param":{"num_deleted":"0","num_feature":"25","num_nodes":"15","size_leaf_vector":"1"}},{"base_weights":[8.537009E-4,-2.7587157E-1,2.9244086E-1,-1.8887056E-1,-7.814711E-1,-2.2425535E-1,4.2788953E-1,2.7854224E-3,-2.5151572E-3,-6.5761566E-4,-8.942309E-3,-5.7787023E-4,-1.2030606E-2,-3.7112143E-3,5.204388E-3],"categories":[],"categories_nodes":[],"categories_segments":[],"categories_sizes":[],"default_left":[0,0,0,0,0,0,0,0,0,0,0,0,0,0,0],"id":15,"left_children":[1,3,5,7,9,11,13,-1,-1,-1,-1,-1,-1,-1,-1],"loss_changes":[6.120028E1,1.6970284E1,2.5942722E1,9.830589E0,4.5262375E0,1.2535797E1,2.1856373E1,0E0,0E0,0E0,0E0,0E0,0E0,0E0,0E0],"parents":[2147483647,0,0,1,1,2,2,3,3,4,4,5,5,6,6],"right_children":[2,4,6,8,10,12,14,-1,-1,-1,-1,-1,-1,-1,-1],"split_conditions":[-5.7369515E-2,1.6113405E0,-7.844819E-1,-1.4410925E0,-1.182328E0,1.4575092E0,-1.0365402E0,2.7854224E-3,-2.5151572E-3,-6.5761566E-4,-8.942309E-3,-5.7787023E-4,-1.2030606E-2,-3.7112143E-3,5.204388E-3],"split_indices":[23,0,0,23,20,23,12,0,0,0,0,0,0,0,0],"split_type":[0,0,0,0,0,0,0,0,0,0,0,0,0,0,0],"sum_hessian":[7.5646625E2,3.8815192E2,3.6831436E2,3.3233838E2,5.5813557E1,7.636168E1,2.9195267E2,3.8870262E1,2.934681E2,7.8120556E0,4.80015E1,6.616743E1,1.0194254E1,2.9993967E1,2.619587E2],"tree_param":{"num_deleted":"0","num_feature":"25","num_nodes":"15","size_leaf_vector":"1"}},{"base_weights":[-3.5919745E-2,1.8643092E-1,-4.8950234E-1,-1.1717685E-1,4.0662134E-1,-5.801774E-1,8.442068E-2,5.5979076E-3,-1.8323341E-3,1.3308235E-3,6.4805457E-3,-1.0847366E-2,-5.33765E-3,5.9784637E-3,-2.9996813E-3],"categories":[],"categories_nodes":[],"categories_segments":[],"categories_sizes":[],"default_left":[0,0,0,0,0,0,0,0,0,0,0,0,0,0,0],"id":16,"left_children":[1,3,5,7,9,11,13,-1,-1,-1,-1,-1,-1,-1,-1],"loss_changes":[7.780504E1,3.4663494E1,1.3254391E1,9.871077E0,1.9749676E1,4.555565E0,7.184245E0,0E0,0E0,0E0,0E0,0E0,0E0,0E0,0E0],"parents":[2147483647,0,0,1,1,2,2,3,3,4,4,5,5,6,6],"right_children":[2,4,6,8,10,12,14,-1,-1,-1,-1,-1,-1,-1,-1],"split_conditions":[2.2223893E-1,-1.2110983E-1,2.0002606E0,-1.5502193E0,-3.5300726E-1,-1.2569982E0,2.173802E0,5.5979076E-3,-1.8323341E-3,1.3308235E-3,6.4805457E-3,-1.0847366E-2,-5.33765E-3,5.9784637E-3,-2.9996813E-3],"split_indices":[19,23,16,23,9,2,9,0,0,0,0,0,0,0,0],"split_type":[0,0,0,0,0,0,0,0,0,0,0,0,0,0,0],"sum_hessian":[7.695543E2,5.1680194E2,2.5275243E2,2.1744604E2,2.9935587E2,2.1825848E2,3.4493942E1,1.8666962E1,1.9877908E2,1.4107358E2,1.5828229E2,1.6500998E1,2.0175748E2,1.4530425E1,1.9963516E1],"tree_param":{"num_deleted":"0","num_feature":"25","num_nodes":"15","size_leaf_vector":"1"}},{"base_weights":[-2.4944719E-2,3.7729958E-1,-2.0907134E-1,-2.4068463E-1,4.904046E-1,-3.939429E-1,4.2562593E-2,2.550122E-3,-8.801626E-3,4.1712704E-3,1.11447275E-2,1.9330486E-3,-4.7905473E-3,-2.2230314E-3,2.3426984E-3],"categories":[],"categories_nodes":[],"categories_segments":[],"categories_sizes":[],"default_left":[0,0,0,0,0,0,0,0,0,0,0,0,0,0,0],"id":17,"left_children":[1,3,5,7,9,11,13,-1,-1,-1,-1,-1,-1,-1,-1],"loss_changes":[5.6703796E1,1.692345E1,2.44449E1,1.22278805E1,8.844112E0,1.5227581E1,1.1390551E1,0E0,0E0,0E0,0E0,0E0,0E0,0E0,0E0],"parents":[2147483647,0,0,1,1,2,2,3,3,4,4,5,5,6,6],"right_children":[2,4,6,8,10,12,14,-1,-1,-1,-1,-1,-1,-1,-1],"split_conditions":[-5.184239E-1,-7.844819E-1,-1.9560438E-1,8.1251085E-1,1.1827862E0,-3.571377E-1,-3.871777E-1,2.550122E-3,-8.801626E-3,4.1712704E-3,1.11447275E-2,1.9330486E-3,-4.7905473E-3,-2.2230314E-3,2.3426984E-3],"split_indices":[19,0,20,23,20,19,23,0,0,0,0,0,0,0,0],"split_type":[0,0,0,0,0,0,0,0,0,0,0,0,0,0,0],"sum_hessian":[7.6354156E2,2.3943063E2,5.241109E2,3.686723E1,2.025634E2,3.0181015E2,2.2230077E2,2.11071E1,1.5760131E1,1.8277098E2,1.9792412E1,3.8044262E1,2.637659E2,9.327331E1,1.2902747E2],"tree_param":{"num_deleted":"0","num_feature":"25","num_nodes":"15","size_leaf_vector":"1"}},{"base_weights":[1.5330293E-2,-2.569425E-1,2.664217E-1,-7.727338E-1,-1.6881521E-1,-2.5175846E-1,3.8782346E-1,-9.16427E-3,-6.012207E-4,-3.5654407E-3,5.6025066E-4,-1.2044422E-3,-1.0226443E-2,5.4054842E-3,-9.098499E-4],"categories":[],"categories_nodes":[],"categories_segments":[],"categories_sizes":[],"default_left":[0,0,0,0,0,0,0,0,0,0,0,0,0,0,0],"id":18,"left_children":[1,3,5,7,9,11,13,-1,-1,-1,-1,-1,-1,-1,-1],"loss_changes":[5.256256E1,1.6637749E1,2.525782E1,5.4284573E0,1.3372486E1,7.62312E0,2.37734E1,0E0,0E0,0E0,0E0,0E0,0E0,0E0,0E0],"parents":[2147483647,0,0,1,1,2,2,3,3,4,4,5,5,6,6],"right_children":[2,4,6,8,10,12,14,-1,-1,-1,-1,-1,-1,-1,-1],"split_conditions":[8.1183486E-2,-1.0151953E0,-7.881237E-1,-1.6921593E-1,-7.2010064E-1,1.4575092E0,4.0163776E-1,-9.16427E-3,-6.012207E-4,-3.5654407E-3,5.6025066E-4,-1.2044422E-3,-1.0226443E-2,5.4054842E-3,-9.098499E-4],"split_indices":[24,0,0,23,23,23,0,0,0,0,0,0,0,0,0],"split_type":[0,0,0,0,0,0,0,0,0,0,0,0,0,0,0],"sum_hessian":[7.6684644E2,3.678943E2,3.9895215E2,5.2551662E1,3.1534262E2,7.552299E1,3.2342917E2,4.3495155E1,9.056508E0,1.7153493E2,1.438077E2,6.5518654E1,1.0004335E1,2.4511589E2,7.8313286E1],"tree_param":{"num_deleted":"0","num_feature":"25","num_nodes":"15","size_leaf_vector":"1"}},{"base_weights":[-1.1751602E-2,3.1359082E-1,-2.3940201E-1,8.0709286E-2,4.6877313E-1,-3.9511538E-1,2.189593E-1,3.302286E-3,-2.8137665E-3,7.070627E-3,2.1291624E-3,-2.5263825E-3,-5.7194126E-3,5.3247744E-3,-2.3725177E-3],"categories":[],"categories_nodes":[],"categories_segments":[],"categories_sizes":[],"default_left":[0,0,0,0,0,0,0,0,0,0,0,0,0,0,0],"id":19,"left_children":[1,3,5,7,9,11,13,-1,-1,-1,-1,-1,-1,-1,-1],"loss_changes":[5.6024323E1,1.1216387E1,3.1847494E1,1.1453106E1,1.1230675E1,8.232807E0,1.635798E1,0E0,0E0,0E0,0E0,0E0,0E0,0E0,0E0],"parents":[2147483647,0,0,1,1,2,2,3,3,4,4,5,5,6,6],"right_children":[2,4,6,8,10,12,14,-1,-1,-1,-1,-1,-1,-1,-1],"split_conditions":[-3.688832E-1,-5.18694E-1,1.9736095E-1,-6.444344E-1,1.2509708E-1,5.6360364E-1,2.1473265E0,3.302286E-3,-2.8137665E-3,7.070627E-3,2.1291624E-3,-2.5263825E-3,-5.7194126E-3,5.3247744E-3,-2.3725177E-3],"split_indices":[19,22,20,0,20,19,15,0,0,0,0,0,0,0,0],"split_type":[0,0,0,0,0,0,0,0,0,0,0,0,0,0,0],"sum_hessian":[7.544142E2,3.1041406E2,4.4400012E2,1.24738914E2,1.8567516E2,3.3151624E2,1.1248387E2,7.390072E1,5.08382E1,9.522493E1,9.0450226E1,1.8493442E2,1.4658182E2,6.656902E1,4.591485E1],"tree_param":{"num_deleted":"0","num_feature":"25","num_nodes":"15","size_leaf_vector":"1"}},{"base_weights":[2.7576165E-2,4.4456828E-1,-2.296871E-1,-4.317122E-2,5.3802234E-1,-4.4331446E-1,1.4417979E-1,7.1935747E-3,-6.0317283E-3,1.9754004E-3,6.694139E-3,-3.6651823E-3,-7.730379E-3,-1.6739775E-3,5.000506E-3],"categories":[],"categories_nodes":[],"categories_segments":[],"categories_sizes":[],"default_left":[0,0,0,0,0,0,0,0,0,0,0,0,0,0,0],"id":20,"left_children":[1,3,5,7,9,11,13,-1,-1,-1,-1,-1,-1,-1,-1],"loss_changes":[8.1311035E1,1.3204266E1,3.7508293E1,2.0684944E1,1.07276535E1,7.277561E0,1.9070108E1,0E0,0E0,0E0,0E0,0E0,0E0,0E0,0E0],"parents":[2147483647,0,0,1,1,2,2,3,3,4,4,5,5,6,6],"right_children":[2,4,6,8,10,12,14,-1,-1,-1,-1,-1,-1,-1,-1],"split_conditions":[-3.7514868E-1,-7.844819E-1,-6.0374282E-2,-7.595908E-1,-5.2183425E-1,1.5275385E0,-2.8970677E-1,7.1935747E-3,-6.0317283E-3,1.9754004E-3,6.694139E-3,-3.6651823E-3,-7.730379E-3,-1.6739775E-3,5.000506E-3],"split_indices":[19,0,5,4,1,0,23,0,0,0,0,0,0,0,0],"split_type":[0,0,0,0,0,0,0,0,0,0,0,0,0,0,0],"sum_hessian":[7.5600397E2,2.881768E2,4.678272E2,4.6424416E1,2.4175237E2,2.9759552E2,1.7023169E2,1.9537088E1,2.688733E1,6.801217E1,1.737402E2,2.4308902E2,5.4506496E1,9.1046684E1,7.9185005E1],"tree_param":{"num_deleted":"0","num_feature":"25","num_nodes":"15","size_leaf_vector":"1"}},{"base_weights":[-6.6559045E-3,-3.299371E-1,1.878979E-1,-9.7805816E-1,-2.3613057E-1,-6.565549E-3,3.3880544E-1,-3.8170714E-3,-1.185691E-2,2.6141398E-3,-3.5500778E-3,1.4034361E-3,-2.2262174E-3,-1.3122872E-3,4.6971855E-3],"categories":[],"categories_nodes":[],"categories_segments":[],"categories_sizes":[],"default_left":[0,0,0,0,0,0,0,0,0,0,0,0,0,0,0],"id":21,"left_children":[1,3,5,7,9,11,13,-1,-1,-1,-1,-1,-1,-1,-1],"loss_changes":[4.7367382E1,1.69713E1,1.3800261E1,3.937622E0,1.4789902E1,6.583304E0,1.6353268E1,0E0,0E0,0E0,0E0,0E0,0E0,0E0,0E0],"parents":[2147483647,0,0,1,1,2,2,3,3,4,4,5,5,6,6],"right_children":[2,4,6,8,10,12,14,-1,-1,-1,-1,-1,-1,-1,-1],"split_conditions":[-2.3970781E-1,-1.1095958E0,2.625647E-1,-1.3478487E0,-1.3974689E0,3.4926006E-1,-7.537181E-1,-3.8170714E-3,-1.185691E-2,2.6141398E-3,-3.5500778E-3,1.4034361E-3,-2.2262174E-3,-1.3122872E-3,4.6971855E-3],"split_indices":[24,9,23,4,23,24,11,0,0,0,0,0,0,0,0],"split_type":[0,0,0,0,0,0,0,0,0,0,0,0,0,0,0],"sum_hessian":[7.5112573E2,2.8194113E2,4.6918457E2,3.4455746E1,2.4748538E2,2.0542499E2,2.6375958E2,9.631393E0,2.482435E1,4.749645E1,1.9998894E2,1.2248843E2,8.293656E1,5.7458084E1,2.063015E2],"tree_param":{"num_deleted":"0","num_feature":"25","num_nodes":"15","size_leaf_vector":"1"}},{"base_weights":[-1.4463161E-3,3.8040596E-1,-2.572811E-1,3.4493405E-2,5.7048595E-1,-4.8884705E-1,1.0542779E-1,-7.023389E-3,9.959319E-4,8.220631E-4,6.6235648E-3,-3.7411773E-3,-6.9581745E-3,1.7632521E-3,-1.190948E-2],"categories":[],"categories_nodes":[],"categories_segments":[],"categories_sizes":[],"default_left":[0,0,0,0,0,0,0,0,0,0,0,0,0,0,0],"id":22,"left_children":[1,3,5,7,9,11,13,-1,-1,-1,-1,-1,-1,-1,-1],"loss_changes":[7.2525475E1,1.956392E1,3.7389698E1,5.1875906E0,8.565338E0,6.186676E0,1.620654E1,0E0,0E0,0E0,0E0,0E0,0E0,0E0,0E0],"parents":[2147483647,0,0,1,1,2,2,3,3,4,4,5,5,6,6],"right_children":[2,4,6,8,10,12,14,-1,-1,-1,-1,-1,-1,-1,-1],"split_conditions":[-3.626201E-1,-5.7369515E-2,-1.0066128E-1,-9.624686E-1,-7.790641E-1,-4.4679776E-1,2.3608396E0,-7.023389E-3,9.959319E-4,8.220631E-4,6.6235648E-3,-3.7411773E-3,-6.9581745E-3,1.7632521E-3,-1.190948E-2],"split_indices":[19,23,2,0,0,9,3,0,0,0,0,0,0,0,0],"split_type":[0,0,0,0,0,0,0,0,0,0,0,0,0,0,0],"sum_hessian":[7.4039404E2,2.9684464E2,4.435494E2,1.0568952E2,1.911551E2,2.7050308E2,1.7304633E2,7.7851048E0,9.790441E1,3.0570694E1,1.6058441E2,1.758386E2,9.46645E1,1.6489252E2,8.153812E0],"tree_param":{"num_deleted":"0","num_feature":"25","num_nodes":"15","size_leaf_vector":"1"}},{"base_weights":[-1.3326593E-2,1.9596107E-1,-4.619513E-1,-8.311304E-2,4.1747418E-1,-7.2230685E-1,-2.6217276E-1,-6.077671E-3,8.62283E-5,1.0640636E-3,6.74533E-3,-8.758196E-3,-5.0879274E-3,-2.0049175E-3,-7.958776E-3],"categories":[],"categories_nodes":[],"categories_segments":[],"categories_sizes":[],"default_left":[0,0,0,0,0,0,0,0,0,0,0,0,0,0,0],"id":23,"left_children":[1,3,5,7,9,11,13,-1,-1,-1,-1,-1,-1,-1,-1],"loss_changes":[7.16143E1,3.2189392E1,1.2430309E1,1.1123278E1,2.312894E1,2.9884872E0,4.411376E0,0E0,0E0,0E0,0E0,0E0,0E0,0E0,0E0],"parents":[2147483647,0,0,1,1,2,2,3,3,4,4,5,5,6,6],"right_children":[2,4,6,8,10,12,14,-1,-1,-1,-1,-1,-1,-1,-1],"split_conditions":[2.5145358E-1,-6.5912776E-2,-7.2010064E-1,-9.5444953E-1,-3.5668507E-1,1.1688181E0,2.1264677E0,-6.077671E-3,8.62283E-5,1.0640636E-3,6.74533E-3,-8.758196E-3,-5.0879274E-3,-2.0049175E-3,-7.958776E-3],"split_indices":[19,23,23,0,22,19,0,0,0,0,0,0,0,0,0],"split_type":[0,0,0,0,0,0,0,0,0,0,0,0,0,0,0],"sum_hessian":[7.607696E2,5.191462E2,2.4162341E2,2.3000204E2,2.8914413E2,1.0377114E2,1.3785226E2,3.339348E1,1.9660857E2,1.3146808E2,1.5767606E2,5.8563286E1,4.5207855E1,1.2480414E2,1.3048127E1],"tree_param":{"num_deleted":"0","num_feature":"25","num_nodes":"15","size_leaf_vector":"1"}},{"base_weights":[-2.4077775E-2,3.6208215E-1,-2.8035328E-1,-1.16598256E-1,5.1561904E-1,-4.5972666E-1,5.0974913E-2,4.6402593E-3,-2.6304321E-3,-9.808317E-4,6.3293027E-3,1.1426515E-3,-5.084768E-3,-1.5180963E-3,4.0163384E-3],"categories":[],"categories_nodes":[],"categories_segments":[],"categories_sizes":[],"default_left":[0,0,0,0,0,0,0,0,0,0,0,0,0,0,0],"id":24,"left_children":[1,3,5,7,9,11,13,-1,-1,-1,-1,-1,-1,-1,-1],"loss_changes":[7.599935E1,2.2577099E1,2.7454327E1,6.517967E0,1.677581E1,8.4399605E0,1.1652454E1,0E0,0E0,0E0,0E0,0E0,0E0,0E0,0E0],"parents":[2147483647,0,0,1,1,2,2,3,3,4,4,5,5,6,6],"right_children":[2,4,6,8,10,12,14,-1,-1,-1,-1,-1,-1,-1,-1],"split_conditions":[-3.571377E-1,-3.871777E-1,-5.19527E-2,-7.4587435E-1,-7.881237E-1,-1.5502193E0,-6.5912776E-2,4.6402593E-3,-2.6304321E-3,-9.808317E-4,6.3293027E-3,1.1426515E-3,-5.084768E-3,-1.5180963E-3,4.0163384E-3],"split_indices":[19,23,5,20,0,23,23,0,0,0,0,0,0,0,0],"split_type":[0,0,0,0,0,0,0,0,0,0,0,0,0,0,0],"sum_hessian":[7.6592896E2,3.053739E2,4.6055502E2,7.421989E1,2.3115402E2,2.9854315E2,1.6201186E2,1.4512439E1,5.9707447E1,3.7121334E1,1.940327E2,2.326565E1,2.7527753E2,1.0300917E2,5.900268E1],"tree_param":{"num_deleted":"0","num_feature":"25","num_nodes":"15","size_leaf_vector":"1"}},{"base_weights":[3.167905E-3,-5.298348E-1,1.28818E-1,6.1471295E-3,-5.933143E-1,-3.1284666E-1,2.8877035E-1,-5.1630973E-3,-1.3521878E-2,-4.0957187E-3,3.7103486E-3,-1.6351887E-3,3.575105E-3],"categories":[],"categories_nodes":[],"categories_segments":[],"categories_sizes":[],"default_left":[0,0,0,0,0,0,0,0,0,0,0,0,0],"id":25,"left_children":[1,3,5,-1,7,9,11,-1,-1,-1,-1,-1,-1],"loss_changes":[5.046544E1,1.080901E1,4.3167156E1,0E0,7.290512E0,1.090758E1,1.3992073E1,0E0,0E0,0E0,0E0,0E0,0E0],"parents":[2147483647,0,0,1,1,2,2,4,4,5,5,6,6],"right_children":[2,4,6,-1,8,10,12,-1,-1,-1,-1,-1,-1],"split_conditions":[-8.5009223E-1,-1.5502193E0,-7.2890013E-1,6.1471295E-3,-1.7445602E-1,-1.3828256E-2,-9.926836E-1,-5.1630973E-3,-1.3521878E-2,-4.0957187E-3,3.7103486E-3,-1.6351887E-3,3.575105E-3],"split_indices":[0,23,23,0,6,24,16,0,0,0,0,0,0],"split_type":[0,0,0,0,0,0,0,0,0,0,0,0,0],"sum_hessian":[7.515132E2,1.4275127E2,6.087619E2,7.044993E0,1.3570627E2,1.6159782E2,4.4716406E2,1.2473001E2,1.0976256E1,1.419256E2,1.967223E1,5.881308E1,3.8835098E2],"tree_param":{"num_deleted":"0","num_feature":"25","num_nodes":"13","size_leaf_vector":"1"}},{"base_weights":[-2.6014484E-2,-5.196662E-1,6.7838974E-2,-4.4968766E-1,-1.2419981E-2,-3.1477967E-1,1.8442455E-1,-5.255855E-3,4.9550473E-3,-8.919435E-3,-1.8449731E-3,2.8150538E-3,-1.0862296E-3],"categories":[],"categories_nodes":[],"categories_segments":[],"categories_sizes":[],"default_left":[0,0,0,0,0,0,0,0,0,0,0,0,0],"id":26,"left_children":[1,3,5,7,-1,9,11,-1,-1,-1,-1,-1,-1],"loss_changes":[3.5202377E1,5.576561E0,2.8547739E1,8.310844E0,0E0,1.1078959E1,1.3974829E1,0E0,0E0,0E0,0E0,0E0,0E0],"parents":[2147483647,0,0,1,1,2,2,3,3,5,5,6,6],"right_children":[2,4,6,8,-1,10,12,-1,-1,-1,-1,-1,-1],"split_conditions":[-9.173047E-1,-1.4794898E-1,-6.627233E-1,-2.063482E-1,-1.2419981E-2,-1.1755525E0,4.0163776E-1,-5.255855E-3,4.9550473E-3,-8.919435E-3,-1.8449731E-3,2.8150538E-3,-1.0862296E-3],"split_indices":[0,22,24,10,0,4,0,0,0,0,0,0,0],"split_type":[0,0,0,0,0,0,0,0,0,0,0,0,0],"sum_hessian":[7.580421E2,1.2037181E2,6.376703E2,1.1121956E2,9.152253E0,1.4852632E2,4.8914398E2,1.03363525E2,7.8560324E0,2.6275776E1,1.2225054E2,3.6745337E2,1.2169062E2],"tree_param":{"num_deleted":"0","num_feature":"25","num_nodes":"13","size_leaf_vector":"1"}},{"base_weights":[3.291284E-2,2.3366168E-1,-4.001077E-1,-3.7376022E-1,4.0046427E-1,-5.8639276E-1,-9.9088274E-2,-5.210458E-3,5.1580006E-3,1.4037138E-3,6.7573786E-3,-4.995971E-3,-1.1261677E-2,-1.8421492E-3,7.0253857E-3],"categories":[],"categories_nodes":[],"categories_segments":[],"categories_sizes":[],"default_left":[0,0,0,0,0,0,0,0,0,0,0,0,0,0,0],"id":27,"left_children":[1,3,5,7,9,11,13,-1,-1,-1,-1,-1,-1,-1,-1],"loss_changes":[6.7125626E1,5.35953E1,1.365926E1,1.5226376E1,2.9569962E1,6.5073586E0,6.5929003E0,0E0,0E0,0E0,0E0,0E0,0E0,0E0,0E0],"parents":[2147483647,0,0,1,1,2,2,3,3,4,4,5,5,6,6],"right_children":[2,4,6,8,10,12,14,-1,-1,-1,-1,-1,-1,-1,-1],"split_conditions":[2.5145358E-1,-7.790641E-1,-1.9228768E-1,6.550445E-2,1.4763443E-1,-2.2793318E-1,7.4415237E-1,-5.210458E-3,5.1580006E-3,1.4037138E-3,6.7573786E-3,-4.995971E-3,-1.1261677E-2,-1.8421492E-3,7.0253857E-3],"split_indices":[19,0,3,19,23,6,23,0,0,0,0,0,0,0,0],"split_type":[0,0,0,0,0,0,0,0,0,0,0,0,0,0,0],"sum_hessian":[7.7011914E2,5.264956E2,2.4362358E2,1.1316339E2,4.1333218E2,1.499064E2,9.371718E1,9.744377E1,1.571962E1,2.1330263E2,2.0002957E2,1.3079944E2,1.910695E1,8.541677E1,8.300409E0],"tree_param":{"num_deleted":"0","num_feature":"25","num_nodes":"15","size_leaf_vector":"1"}},{"base_weights":[2.9236786E-3,-2.5528842E-1,1.9173725E-1,-1.4835846E-1,-7.0260644E-1,2.2695278E-1,-9.741873E-3,-7.0235613E-3,-5.2850397E-4,-2.677637E-3,-7.988164E-3,-2.0596022E-3,3.371656E-3],"categories":[],"categories_nodes":[],"categories_segments":[],"categories_sizes":[],"default_left":[0,0,0,0,0,0,0,0,0,0,0,0,0],"id":28,"left_children":[1,3,5,7,9,11,-1,-1,-1,-1,-1,-1,-1],"loss_changes":[3.7616283E1,1.5483713E1,1.8519205E1,1.3946568E1,2.4053001E0,2.0748217E1,0E0,0E0,0E0,0E0,0E0,0E0,0E0],"parents":[2147483647,0,0,1,1,2,2,3,3,4,4,5,5],"right_children":[2,4,6,8,10,12,-1,-1,-1,-1,-1,-1,-1],"split_conditions":[-3.016129E-1,1.3914241E0,2.3534458E0,-9.6994644E-1,-2.42252E0,-7.881237E-1,-9.741873E-3,-7.0235613E-3,-5.2850397E-4,-2.677637E-3,-7.988164E-3,-2.0596022E-3,3.371656E-3],"split_indices":[23,0,3,22,24,0,0,0,0,0,0,0,0],"split_type":[0,0,0,0,0,0,0,0,0,0,0,0,0],"sum_hessian":[7.695496E2,3.2489172E2,4.4465793E2,2.6328577E2,6.160596E1,4.3240298E2,1.2254934E1,3.7781143E1,2.2550462E2,1.18464365E1,4.9759525E1,8.7568306E1,3.448347E2],"tree_param":{"num_deleted":"0","num_feature":"25","num_nodes":"13","size_leaf_vector":"1"}},{"base_weights":[-2.2376116E-2,-3.0582565E-1,1.2357748E-1,-2.07643E-1,-6.525419E-1,-2.8363538E-1,2.3134504E-1,-5.3910934E-3,-2.8820537E-4,-4.2650015E-3,-1.088856E-2,2.603864E-4,-6.1565763E-3,-3.367045E-3,2.8170338E-3],"categories":[],"categories_nodes":[],"categories_segments":[],"categories_sizes":[],"default_left":[0,0,0,0,0,0,0,0,0,0,0,0,0,0,0],"id":29,"left_children":[1,3,5,7,9,11,13,-1,-1,-1,-1,-1,-1,-1,-1],"loss_changes":[3.1855085E1,8.773094E0,2.237572E1,1.2159957E1,5.185461E0,1.1000809E1,1.1610146E1,0E0,0E0,0E0,0E0,0E0,0E0,0E0,0E0],"parents":[2147483647,0,0,1,1,2,2,3,3,4,4,5,5,6,6],"right_children":[2,4,6,8,10,12,14,-1,-1,-1,-1,-1,-1,-1,-1],"split_conditions":[-2.9068765E-1,1.3914241E0,-7.844819E-1,-8.5009223E-1,-1.5119632E-1,3.9506033E-1,-1.035878E0,-5.3910934E-3,-2.8820537E-4,-4.2650015E-3,-1.088856E-2,2.603864E-4,-6.1565763E-3,-3.367045E-3,2.8170338E-3],"split_indices":[24,0,0,0,4,24,13,0,0,0,0,0,0,0,0],"split_type":[0,0,0,0,0,0,0,0,0,0,0,0,0,0,0],"sum_hessian":[7.68082E2,2.6069778E2,5.0738416E2,2.0441165E2,5.6286144E1,1.05836426E2,4.0154773E2,7.092671E1,1.3348494E2,3.8380054E1,1.790609E1,5.5238018E1,5.0598404E1,3.2235893E1,3.6931183E2],"tree_param":{"num_deleted":"0","num_feature":"25","num_nodes":"15","size_leaf_vector":"1"}},{"base_weights":[3.274304E-2,-3.1007534E-1,2.733502E-1,-9.1525066E-1,-2.4237779E-1,3.0547887E-1,-1.2152203E-2,-5.7966295E-3,-1.2519147E-2,-6.9247787E-3,-1.219837E-3,3.5326332E-3,-3.7739032E-3],"categories":[],"categories_nodes":[],"categories_segments":[],"categories_sizes":[],"default_left":[0,0,0,0,0,0,0,0,0,0,0,0,0],"id":30,"left_children":[1,3,5,7,9,11,-1,-1,-1,-1,-1,-1,-1],"loss_changes":[6.05147E1,1.2175537E1,2.0984928E1,2.673296E0,1.4737404E1,1.3926556E1,0E0,0E0,0E0,0E0,0E0,0E0,0E0],"parents":[2147483647,0,0,1,1,2,2,3,3,4,4,5,5],"right_children":[2,4,6,8,10,12,-1,-1,-1,-1,-1,-1,-1],"split_conditions":[-3.871777E-1,-1.0882901E0,2.3882923E0,-1.2199799E0,-9.494356E-1,2.201451E0,-1.2152203E-2,-5.7966295E-3,-1.2519147E-2,-6.9247787E-3,-1.219837E-3,3.5326332E-3,-3.7739032E-3],"split_indices":[23,22,0,11,0,17,0,0,0,0,0,0,0],"split_type":[0,0,0,0,0,0,0,0,0,0,0,0,0],"sum_hessian":[7.316213E2,3.016046E2,4.3001663E2,2.9084759E1,2.7251987E2,4.217094E2,8.307211E0,1.5928736E1,1.3156023E1,5.650837E1,2.160115E2,3.945809E2,2.7128521E1],"tree_param":{"num_deleted":"0","num_feature":"25","num_nodes":"13","size_leaf_vector":"1"}},{"base_weights":[-4.4561062E-2,3.923689E-1,-2.29377E-1,-2.4323945E-1,4.7604632E-1,-7.15199E-2,-4.7592023E-1,2.3719755E-3,-7.779278E-3,-9.020704E-4,5.857659E-3,-3.8828652E-3,1.3566305E-3,-6.1682253E-3,-2.8394577E-3],"categories":[],"categories_nodes":[],"categories_segments":[],"categories_sizes":[],"default_left":[0,0,0,0,0,0,0,0,0,0,0,0,0,0,0],"id":31,"left_children":[1,3,5,7,9,11,13,-1,-1,-1,-1,-1,-1,-1,-1],"loss_changes":[6.185344E1,1.2227589E1,2.0909296E1,7.1599536E0,1.2576256E1,2.1660885E1,5.502098E0,0E0,0E0,0E0,0E0,0E0,0E0,0E0,0E0],"parents":[2147483647,0,0,1,1,2,2,3,3,4,4,5,5,6,6],"right_children":[2,4,6,8,10,12,14,-1,-1,-1,-1,-1,-1,-1,-1],"split_conditions":[-5.395637E-1,-8.210597E-1,3.075819E-1,-7.4312955E-1,-7.844819E-1,-4.5113534E-1,1.1938729E0,2.3719755E-3,-7.779278E-3,-9.020704E-4,5.857659E-3,-3.8828652E-3,1.3566305E-3,-6.1682253E-3,-2.8394577E-3],"split_indices":[19,23,19,19,0,0,19,0,0,0,0,0,0,0,0],"split_type":[0,0,0,0,0,0,0,0,0,0,0,0,0,0,0],"sum_hessian":[7.638568E2,2.2672504E2,5.371318E2,2.6154005E1,2.0057104E2,3.2824963E2,2.0888214E2,1.4068935E1,1.208507E1,3.2584255E1,1.6798679E2,1.2945258E2,1.9879706E2,1.1918883E2,8.969332E1],"tree_param":{"num_deleted":"0","num_feature":"25","num_nodes":"15","size_leaf_vector":"1"}},{"base_weights":[2.4896808E-2,-1.00438215E-1,2.3931982E-1,-2.2064107E-2,-4.1341057E-1,9.382186E-1,1.5418452E-1,-7.105092E-4,8.505559E-3,-5.889387E-3,3.621622E-3,1.2555055E-2,4.288263E-3,-8.780792E-6,5.7876096E-3],"categories":[],"categories_nodes":[],"categories_segments":[],"categories_sizes":[],"default_left":[0,0,0,0,0,0,0,0,0,0,0,0,0,0,0],"id":32,"left_children":[1,3,5,7,9,11,13,-1,-1,-1,-1,-1,-1,-1,-1],"loss_changes":[2.0144705E1,1.1598034E1,1.630625E1,1.6282518E1,1.3106747E1,4.282097E0,1.6305168E1,0E0,0E0,0E0,0E0,0E0,0E0,0E0,0E0],"parents":[2147483647,0,0,1,1,2,2,3,3,4,4,5,5,6,6],"right_children":[2,4,6,8,10,12,14,-1,-1,-1,-1,-1,-1,-1,-1],"split_conditions":[-7.354118E-2,-2.748491E-1,4.115558E-2,-3.2896546E-1,6.780935E-1,8.0203503E-1,8.234232E-1,-7.105092E-4,8.505559E-3,-5.889387E-3,3.621622E-3,1.2555055E-2,4.288263E-3,-8.780792E-6,5.7876096E-3],"split_indices":[4,22,11,2,23,24,24,0,0,0,0,0,0,0,0],"split_type":[0,0,0,0,0,0,0,0,0,0,0,0,0,0,0],"sum_hessian":[7.476841E2,4.7220267E2,2.7548138E2,3.784918E2,9.371089E1,2.8825415E1,2.4665596E2,3.592433E2,1.924849E1,7.6612526E1,1.709836E1,1.6859417E1,1.1965998E1,1.8140257E2,6.5253395E1],"tree_param":{"num_deleted":"0","num_feature":"25","num_nodes":"15","size_leaf_vector":"1"}},{"base_weights":[-1.882493E-2,2.4984978E-1,-2.2422442E-1,3.4938577E-1,-4.4246283E-3,-3.553109E-1,2.5814262E-1,1.485101E-3,5.7886327E-3,-2.210466E-3,2.8995522E-3,-2.5500064E-3,-7.6783923E-3,8.224078E-3,-1.243942E-4],"categories":[],"categories_nodes":[],"categories_segments":[],"categories_sizes":[],"default_left":[0,0,0,0,0,0,0,0,0,0,0,0,0,0,0],"id":33,"left_children":[1,3,5,7,9,11,13,-1,-1,-1,-1,-1,-1,-1,-1],"loss_changes":[4.1738995E1,8.296148E0,2.7192564E1,1.0771671E1,6.0064645E0,1.376738E1,1.408184E1,0E0,0E0,0E0,0E0,0E0,0E0,0E0,0E0],"parents":[2147483647,0,0,1,1,2,2,3,3,4,4,5,5,6,6],"right_children":[2,4,6,8,10,12,14,-1,-1,-1,-1,-1,-1,-1,-1],"split_conditions":[-3.1495726E-1,3.3636284E-3,3.1484127E-1,-4.6779817E-1,6.9908214E-1,1.5638353E0,1.9180362E0,1.485101E-3,5.7886327E-3,-2.210466E-3,2.8995522E-3,-2.5500064E-3,-7.6783923E-3,8.224078E-3,-1.243942E-4],"split_indices":[19,0,22,15,23,0,7,0,0,0,0,0,0,0,0],"split_type":[0,0,0,0,0,0,0,0,0,0,0,0,0,0,0],"sum_hessian":[7.543227E2,3.2672745E2,4.2759528E2,2.3454176E2,9.218568E1,3.3643124E2,9.116403E1,1.2594316E2,1.085986E2,5.325018E1,3.8935497E1,2.7192758E2,6.4503654E1,2.8886148E1,6.2277885E1],"tree_param":{"num_deleted":"0","num_feature":"25","num_nodes":"15","size_leaf_vector":"1"}},{"base_weights":[3.009737E-2,2.1134354E-1,-3.612215E-1,4.5337918E-1,4.365415E-2,-6.10666E-1,-1.6654976E-1,-5.848364E-3,4.934154E-3,-1.1282866E-3,4.855168E-3,-8.231295E-3,-3.5793653E-3,7.04583E-4,-4.1445224E-3],"categories":[],"categories_nodes":[],"categories_segments":[],"categories_sizes":[],"default_left":[0,0,0,0,0,0,0,0,0,0,0,0,0,0,0],"id":34,"left_children":[1,3,5,7,9,11,13,-1,-1,-1,-1,-1,-1,-1,-1],"loss_changes":[5.415704E1,2.115694E1,1.1637192E1,9.160355E0,2.1442831E1,5.3750343E0,8.087579E0,0E0,0E0,0E0,0E0,0E0,0E0,0E0,0E0],"parents":[2147483647,0,0,1,1,2,2,3,3,4,4,5,5,6,6],"right_children":[2,4,6,8,10,12,14,-1,-1,-1,-1,-1,-1,-1,-1],"split_conditions":[2.2223893E-1,-5.92022E-1,-7.2010064E-1,-1.0053959E0,2.8092134E-1,1.1116636E0,5.2773617E-2,-5.848364E-3,4.934154E-3,-1.1282866E-3,4.855168E-3,-8.231295E-3,-3.5793653E-3,7.04583E-4,-4.1445224E-3],"split_indices":[19,19,23,17,18,19,23,0,0,0,0,0,0,0,0],"split_type":[0,0,0,0,0,0,0,0,0,0,0,0,0,0,0],"sum_hessian":[7.6150494E2,5.207639E2,2.4074101E2,2.1243735E2,3.083266E2,1.04588554E2,1.3615245E2,7.3826847E0,2.0505467E2,2.2824112E2,8.008547E1,5.5594578E1,4.8993977E1,6.997162E1,6.618083E1],"tree_param":{"num_deleted":"0","num_feature":"25","num_nodes":"15","size_leaf_vector":"1"}},{"base_weights":[3.7075747E-2,2.2494815E-1,-3.914612E-1,1.0692631E-2,3.9620999E-1,-2.551574E-1,-7.648318E-1,-3.2503675E-3,1.71658E-3,8.636138E-4,5.58235E-3,-2.0862941E-3,-1.0958605E-2,-1.1285553E-2,-5.082114E-3],"categories":[],"categories_nodes":[],"categories_segments":[],"categories_sizes":[],"default_left":[0,0,0,0,0,0,0,0,0,0,0,0,0,0,0],"id":35,"left_children":[1,3,5,7,9,11,13,-1,-1,-1,-1,-1,-1,-1,-1],"loss_changes":[5.9863712E1,1.8959274E1,1.1339771E1,1.2518273E1,1.4369747E1,6.3249483E0,5.037487E0,0E0,0E0,0E0,0E0,0E0,0E0,0E0,0E0],"parents":[2147483647,0,0,1,1,2,2,3,3,4,4,5,5,6,6],"right_children":[2,4,6,8,10,12,14,-1,-1,-1,-1,-1,-1,-1,-1],"split_conditions":[2.668685E-1,-5.7369515E-2,1.5275385E0,-6.871416E-1,-5.247181E-1,2.2587748E0,-1.2832357E0,-3.2503675E-3,1.71658E-3,8.636138E-4,5.58235E-3,-2.0862941E-3,-1.0958605E-2,-1.1285553E-2,-5.082114E-3],"split_indices":[19,23,0,0,10,20,23,0,0,0,0,0,0,0,0],"split_type":[0,0,0,0,0,0,0,0,0,0,0,0,0,0,0],"sum_hessian":[7.414601E2,5.158043E2,2.2565573E2,2.2961238E2,2.86192E2,1.6654112E2,5.91146E1,7.408086E1,1.5553152E2,9.879476E1,1.8739722E2,1.5899011E2,7.551013E0,2.3048626E1,3.6065975E1],"tree_param":{"num_deleted":"0","num_feature":"25","num_nodes":"15","size_leaf_vector":"1"}},{"base_weights":[-8.234091E-3,1.7704563E-1,-4.0679374E-1,-1.8008174E-1,3.0915385E-1,-5.872333E-1,-1.9696575E-1,1.1568224E-3,-3.8651868E-3,3.493193E-3,-6.9781845E-3,-5.1924465E-3,-1.2952E-2,6.010969E-3,-2.6450017E-3],"categories":[],"categories_nodes":[],"categories_segments":[],"categories_sizes":[],"default_left":[0,0,0,0,0,0,0,0,0,0,0,0,0,0,0],"id":36,"left_children":[1,3,5,7,9,11,13,-1,-1,-1,-1,-1,-1,-1,-1],"loss_changes":[5.5484177E1,2.425632E1,8.911808E0,8.540339E0,1.5402962E1,5.4736977E0,6.1816783E0,0E0,0E0,0E0,0E0,0E0,0E0,0E0,0E0],"parents":[2147483647,0,0,1,1,2,2,3,3,4,4,5,5,6,6],"right_children":[2,4,6,8,10,12,14,-1,-1,-1,-1,-1,-1,-1,-1],"split_conditions":[2.5145358E-1,-7.109313E-1,-2.3010236E-1,-4.8084354E-1,2.3643084E0,-2.375416E-1,-2.3465052E-1,1.1568224E-3,-3.8651868E-3,3.493193E-3,-6.9781845E-3,-5.1924465E-3,-1.2952E-2,6.010969E-3,-2.6450017E-3],"split_indices":[19,0,5,19,20,6,20,0,0,0,0,0,0,0,0],"split_type":[0,0,0,0,0,0,0,0,0,0,0,0,0,0,0],"sum_hessian":[7.4938446E2,5.1194888E2,2.3743558E2,1.3814343E2,3.7380548E2,1.2669058E2,1.10744995E2,5.6966564E1,8.1176865E1,3.600953E2,1.3710147E1,1.1717159E2,9.518989E0,8.023984E0,1.0272101E2],"tree_param":{"num_deleted":"0","num_feature":"25","num_nodes":"15","size_leaf_vector":"1"}},{"base_weights":[-5.5027936E-2,-6.448276E-1,6.2474303E-2,-5.8016056E-1,-1.1705285E-2,-2.587367E-1,2.2632554E-1,-7.2694616E-3,-1.9763743E-3,-8.567469E-4,-5.2953917E-3,-3.1342618E-3,2.998386E-3],"categories":[],"categories_nodes":[],"categories_segments":[],"categories_sizes":[],"default_left":[0,0,0,0,0,0,0,0,0,0,0,0,0],"id":37,"left_children":[1,3,5,7,-1,9,11,-1,-1,-1,-1,-1,-1],"loss_changes":[5.396558E1,3.7183647E0,3.425583E1,6.435169E0,0E0,1.0262769E1,1.7187868E1,0E0,0E0,0E0,0E0,0E0,0E0],"parents":[2147483647,0,0,1,1,2,2,3,3,5,5,6,6],"right_children":[2,4,6,8,-1,10,12,-1,-1,-1,-1,-1,-1],"split_conditions":[-9.173047E-1,9.026389E-1,-2.4794242E-1,1.2343719E-1,-1.1705285E-2,9.763867E-1,-1.0053959E0,-7.2694616E-3,-1.9763743E-3,-8.567469E-4,-5.2953917E-3,-3.1342618E-3,2.998386E-3],"split_indices":[0,24,24,24,0,0,17,0,0,0,0,0,0],"split_type":[0,0,0,0,0,0,0,0,0,0,0,0,0],"sum_hessian":[7.771115E2,1.2835399E2,6.4875757E2,1.1616766E2,1.2186323E1,2.1895096E2,4.298066E2,8.3301834E1,3.2865826E1,1.3438548E2,8.456548E1,5.1130424E1,3.7867618E2],"tree_param":{"num_deleted":"0","num_feature":"25","num_nodes":"13","size_leaf_vector":"1"}},{"base_weights":[1.29322475E-2,-2.24271E-1,2.7027598E-1,-8.292845E-1,-1.5062487E-1,3.1339002E-1,-5.341854E-1,-6.041233E-3,-1.4341144E-2,-4.925104E-3,8.958387E-5,1.9314238E-3,8.7709185E-3,-7.5846086E-3,-2.1042665E-3],"categories":[],"categories_nodes":[],"categories_segments":[],"categories_sizes":[],"default_left":[0,0,0,0,0,0,0,0,0,0,0,0,0,0,0],"id":38,"left_children":[1,3,5,7,9,11,13,-1,-1,-1,-1,-1,-1,-1,-1],"loss_changes":[4.5693344E1,1.7232023E1,1.2619087E1,4.860214E0,1.9018017E1,2.2970398E1,1.1932597E0,0E0,0E0,0E0,0E0,0E0,0E0,0E0,0E0],"parents":[2147483647,0,0,1,1,2,2,3,3,4,4,5,5,6,6],"right_children":[2,4,6,8,10,12,14,-1,-1,-1,-1,-1,-1,-1,-1],"split_conditions":[-5.7369515E-2,-1.0287261E0,2.198069E0,-1.773008E-1,-9.622985E-1,5.0569046E-1,3.063127E-1,-6.041233E-3,-1.4341144E-2,-4.925104E-3,8.958387E-5,1.9314238E-3,8.7709185E-3,-7.5846086E-3,-2.1042665E-3],"split_indices":[23,0,11,15,24,1,23,0,0,0,0,0,0,0,0],"split_type":[0,0,0,0,0,0,0,0,0,0,0,0,0,0,0],"sum_hessian":[7.4655334E2,3.885453E2,3.5800806E2,4.105036E1,3.4749493E2,3.403765E2,1.7631584E1,3.1370747E1,9.679614E0,1.0992E2,2.3757494E2,2.8164023E2,5.873624E1,9.622899E0,8.008686E0],"tree_param":{"num_deleted":"0","num_feature":"25","num_nodes":"15","size_leaf_vector":"1"}},{"base_weights":[2.8320877E-2,-1.4278157E-1,3.3350372E-1,-2.4737242E-1,4.1967597E-2,-3.8217416E-1,4.5641285E-1,-1.9369281E-3,-1.0137751E-2,8.035717E-3,-4.3087278E-4,3.5025396E-3,-9.575823E-3,3.3201545E-3,7.6239626E-3],"categories":[],"categories_nodes":[],"categories_segments":[],"categories_sizes":[],"default_left":[0,0,0,0,0,0,0,0,0,0,0,0,0,0,0],"id":39,"left_children":[1,3,5,7,9,11,13,-1,-1,-1,-1,-1,-1,-1,-1],"loss_changes":[3.868915E1,9.186269E0,2.3585342E1,1.2283791E1,1.1209513E1,1.7004467E1,8.409817E0,0E0,0E0,0E0,0E0,0E0,0E0,0E0,0E0],"parents":[2147483647,0,0,1,1,2,2,3,3,4,4,5,5,6,6],"right_children":[2,4,6,8,10,12,14,-1,-1,-1,-1,-1,-1,-1,-1],"split_conditions":[2.934976E-1,-1.1419432E-1,-9.149597E-1,-1.7806962E-1,-1.9196112E-2,7.304034E-1,2.969839E-1,-1.9369281E-3,-1.0137751E-2,8.035717E-3,-4.3087278E-4,3.5025396E-3,-9.575823E-3,3.3201545E-3,7.6239626E-3],"split_indices":[23,1,22,10,22,23,22,0,0,0,0,0,0,0,0],"split_type":[0,0,0,0,0,0,0,0,0,0,0,0,0,0,0],"sum_hessian":[7.390108E2,4.7386688E2,2.6514395E2,3.023567E2,1.715102E2,3.8552166E1,2.2659178E2,2.8373624E2,1.8620436E1,1.6381168E1,1.5512903E2,1.7133938E1,2.1418228E1,1.6258003E2,6.4011734E1],"tree_param":{"num_deleted":"0","num_feature":"25","num_nodes":"15","size_leaf_vector":"1"}},{"base_weights":[1.3217849E-2,-1.4154693E-1,2.911782E-1,-5.6219774E-1,-5.16128E-2,-3.758602E-1,3.888612E-1,-3.3476972E-3,-8.166626E-3,-6.335156E-3,-1.3354211E-4,-9.398577E-3,-1.8405118E-3,5.23371E-3,1.52343E-3],"categories":[],"categories_nodes":[],"categories_segments":[],"categories_sizes":[],"default_left":[0,0,0,0,0,0,0,0,0,0,0,0,0,0,0],"id":40,"left_children":[1,3,5,7,9,11,13,-1,-1,-1,-1,-1,-1,-1,-1],"loss_changes":[3.2884224E1,1.8549046E1,1.7959188E1,4.7266617E0,9.023201E0,3.6597495E0,7.522278E0,0E0,0E0,0E0,0E0,0E0,0E0,0E0,0E0],"parents":[2147483647,0,0,1,1,2,2,3,3,4,4,5,5,6,6],"right_children":[2,4,6,8,10,12,14,-1,-1,-1,-1,-1,-1,-1,-1],"split_conditions":[3.063127E-1,-9.494356E-1,-9.87081E-1,-5.2867186E-1,-1.2536964E0,-7.9356873E-1,3.3636284E-3,-3.3476972E-3,-8.166626E-3,-6.335156E-3,-1.3354211E-4,-9.398577E-3,-1.8405118E-3,5.23371E-3,1.52343E-3],"split_indices":[23,0,8,23,20,0,0,0,0,0,0,0,0,0,0],"split_type":[0,0,0,0,0,0,0,0,0,0,0,0,0,0,0],"sum_hessian":[7.624629E2,4.9008215E2,2.7238074E2,8.5397835E1,4.0468433E2,3.442927E1,2.3795148E2,4.631731E1,3.9080524E1,2.400568E1,3.8067865E2,7.747744E0,2.6681526E1,1.5091313E2,8.703835E1],"tree_param":{"num_deleted":"0","num_feature":"25","num_nodes":"15","size_leaf_vector":"1"}},{"base_weights":[-3.0549621E-2,-3.9557505E-1,1.347005E-1,-4.9691096E-1,3.0966914E-1,-2.1509376E-1,2.2699654E-1,-3.6386578E-4,-5.767465E-3,1.2058663E-2,-4.331934E-4,-6.2125624E-4,-6.715788E-3,3.977957E-3,-1.7598246E-3],"categories":[],"categories_nodes":[],"categories_segments":[],"categories_sizes":[],"default_left":[0,0,0,0,0,0,0,0,0,0,0,0,0,0,0],"id":41,"left_children":[1,3,5,7,9,11,13,-1,-1,-1,-1,-1,-1,-1,-1],"loss_changes":[4.647226E1,1.7310566E1,1.7174942E1,7.710537E0,9.788496E0,7.727396E0,2.899254E1,0E0,0E0,0E0,0E0,0E0,0E0,0E0,0E0],"parents":[2147483647,0,0,1,1,2,2,3,3,4,4,5,5,6,6],"right_children":[2,4,6,8,10,12,14,-1,-1,-1,-1,-1,-1,-1,-1],"split_conditions":[-4.471892E-1,3.1484127E-1,-7.790641E-1,-1.5502193E0,1.8479724E0,-8.248939E-1,3.2402647E-1,-3.6386578E-4,-5.767465E-3,1.2058663E-2,-4.331934E-4,-6.2125624E-4,-6.715788E-3,3.977957E-3,-1.7598246E-3],"split_indices":[24,22,0,23,22,0,0,0,0,0,0,0,0,0,0],"split_type":[0,0,0,0,0,0,0,0,0,0,0,0,0,0,0],"sum_hessian":[7.685389E2,2.3906596E2,5.2947296E2,2.0928883E2,2.9777122E1,1.102613E2,4.1921164E2,3.113649E1,1.7815234E2,7.7315187E0,2.2045603E1,8.343749E1,2.6823805E1,2.94432E2,1.2477963E2],"tree_param":{"num_deleted":"0","num_feature":"25","num_nodes":"15","size_leaf_vector":"1"}},{"base_weights":[-1.2125843E-3,1.7623281E-1,-3.6671314E-1,-1.9275339E-1,2.64668E-1,-4.793589E-1,1.87376E-1,4.2396685E-4,-6.0609244E-3,-4.997103E-3,3.1384192E-3,-3.5010816E-3,-6.544741E-3,6.5452927E-3,-2.8334323E-3],"categories":[],"categories_nodes":[],"categories_segments":[],"categories_sizes":[],"default_left":[0,0,0,0,0,0,0,0,0,0,0,0,0,0,0],"id":42,"left_children":[1,3,5,7,9,11,13,-1,-1,-1,-1,-1,-1,-1,-1],"loss_changes":[4.934032E1,1.676268E1,1.560833E1,9.705695E0,1.570089E1,4.4539146E0,9.580712E0,0E0,0E0,0E0,0E0,0E0,0E0,0E0,0E0],"parents":[2147483647,0,0,1,1,2,2,3,3,4,4,5,5,6,6],"right_children":[2,4,6,8,10,12,14,-1,-1,-1,-1,-1,-1,-1,-1],"split_conditions":[2.2223893E-1,-7.790641E-1,1.0089843E0,-6.685567E-1,-1.0661231E0,-2.6264855E-1,2.173802E0,4.2396685E-4,-6.0609244E-3,-4.997103E-3,3.1384192E-3,-3.5010816E-3,-6.544741E-3,6.5452927E-3,-2.8334323E-3],"split_indices":[19,0,15,20,13,3,9,0,0,0,0,0,0,0,0],"split_type":[0,0,0,0,0,0,0,0,0,0,0,0,0,0,0],"sum_hessian":[7.587662E2,5.111351E2,2.4763109E2,9.859183E1,4.1254327E2,2.0590556E2,4.172552E1,6.3413235E1,3.517859E1,2.438177E1,3.881615E2,1.20192215E2,8.571335E1,2.0746098E1,2.0979422E1],"tree_param":{"num_deleted":"0","num_feature":"25","num_nodes":"15","size_leaf_vector":"1"}},{"base_weights":[-2.0878954E-2,-3.5441124E-1,1.3150425E-1,-4.2901573E-1,1.7662401E-1,-3.9879745E-1,1.8438953E-1,3.5307496E-3,-4.6169986E-3,8.403122E-3,-2.750049E-3,-2.061503E-3,-1.0401206E-2,7.875222E-4,3.656184E-3],"categories":[],"categories_nodes":[],"categories_segments":[],"categories_sizes":[],"default_left":[0,0,0,0,0,0,0,0,0,0,0,0,0,0,0],"id":43,"left_children":[1,3,5,7,9,11,13,-1,-1,-1,-1,-1,-1,-1,-1],"loss_changes":[3.870837E1,9.5373535E0,1.4737378E1,5.523243E0,9.261455E0,5.682739E0,9.086575E0,0E0,0E0,0E0,0E0,0E0,0E0,0E0,0E0],"parents":[2147483647,0,0,1,1,2,2,3,3,4,4,5,5,6,6],"right_children":[2,4,6,8,10,12,14,-1,-1,-1,-1,-1,-1,-1,-1],"split_conditions":[-4.3064865E-1,2.758008E-1,-1.0426918E0,-1.3524487E0,1.9543686E0,-1.0451456E0,5.9626424E-1,3.5307496E-3,-4.6169986E-3,8.403122E-3,-2.750049E-3,-2.061503E-3,-1.0401206E-2,7.875222E-4,3.656184E-3],"split_indices":[24,22,11,2,10,6,24,0,0,0,0,0,0,0,0],"split_type":[0,0,0,0,0,0,0,0,0,0,0,0,0,0,0],"sum_hessian":[7.596882E2,2.3782262E2,5.2186554E2,2.0869537E2,2.9127245E1,4.6731308E1,4.7513425E2,7.978447E0,2.0071693E2,1.1446093E1,1.7681152E1,3.6952568E1,9.778741E0,3.0107428E2,1.7405997E2],"tree_param":{"num_deleted":"0","num_feature":"25","num_nodes":"15","size_leaf_vector":"1"}},{"base_weights":[4.919868E-2,3.0614993E-1,-2.065087E-1,-4.9517202E-1,3.5413006E-1,-3.4618574E-1,1.8566954E-1,2.3858154E-3,-9.528967E-3,1.4238163E-3,4.583599E-3,-1.7670175E-3,-4.833364E-3,2.8811523E-3,-9.934364E-3],"categories":[],"categories_nodes":[],"categories_segments":[],"categories_sizes":[],"default_left":[0,0,0,0,0,0,0,0,0,0,0,0,0,0,0],"id":44,"left_children":[1,3,5,7,9,11,13,-1,-1,-1,-1,-1,-1,-1,-1],"loss_changes":[4.9107395E1,1.4505375E1,2.0590878E1,7.4392195E0,7.7089195E0,6.345524E0,1.2252246E1,0E0,0E0,0E0,0E0,0E0,0E0,0E0,0E0],"parents":[2147483647,0,0,1,1,2,2,3,3,4,4,5,5,6,6],"right_children":[2,4,6,8,10,12,14,-1,-1,-1,-1,-1,-1,-1,-1],"split_conditions":[-1.5827174E-1,-9.624686E-1,1.504873E-1,-7.7612334E-1,-1.3746217E-1,5.6360364E-1,2.3608396E0,2.3858154E-3,-9.528967E-3,1.4238163E-3,4.583599E-3,-1.7670175E-3,-4.833364E-3,2.8811523E-3,-9.934364E-3],"split_indices":[19,0,3,12,23,19,3,0,0,0,0,0,0,0,0],"split_type":[0,0,0,0,0,0,0,0,0,0,0,0,0,0,0],"sum_hessian":[7.454375E2,3.7171603E2,3.7372147E2,2.0473042E1,3.5124298E2,2.7566037E2,9.8061104E1,8.04896E0,1.2424082E1,1.1664285E2,2.3460013E2,1.24320114E2,1.5134026E2,9.091746E1,7.1436434E0],"tree_param":{"num_deleted":"0","num_feature":"25","num_nodes":"15","size_leaf_vector":"1"}},{"base_weights":[6.387929E-2,4.050782E-1,-1.6143464E-1,1.819718E-1,6.329287E-1,-4.8447165E-1,-1.3104656E-2,8.28013E-3,6.6199445E-4,3.4949917E-4,8.70997E-3,-3.830793E-3,-9.413652E-3,-2.0615533E-3,2.54313E-3],"categories":[],"categories_nodes":[],"categories_segments":[],"categories_sizes":[],"default_left":[0,0,0,0,0,0,0,0,0,0,0,0,0,0,0],"id":45,"left_children":[1,3,5,7,9,11,13,-1,-1,-1,-1,-1,-1,-1,-1],"loss_changes":[5.664778E1,1.4780106E1,2.1268414E1,1.1123191E1,2.0549305E1,6.110611E0,1.5814108E1,0E0,0E0,0E0,0E0,0E0,0E0,0E0,0E0],"parents":[2147483647,0,0,1,1,2,2,3,3,4,4,5,5,6,6],"right_children":[2,4,6,8,10,12,14,-1,-1,-1,-1,-1,-1,-1,-1],"split_conditions":[-3.688832E-1,3.955031E-1,-7.360697E-1,-7.4587435E-1,-4.9496928E-1,-7.83458E-1,-1.7988658E-1,8.28013E-3,6.6199445E-4,3.4949917E-4,8.70997E-3,-3.830793E-3,-9.413652E-3,-2.0615533E-3,2.54313E-3],"split_indices":[19,23,20,20,20,15,23,0,0,0,0,0,0,0,0],"split_type":[0,0,0,0,0,0,0,0,0,0,0,0,0,0,0],"sum_hessian":[7.350132E2,2.920127E2,4.430005E2,1.4845114E2,1.4356155E2,1.3869048E2,3.0431E2,2.1625105E1,1.2682604E2,4.1206375E1,1.0235519E2,1.1500695E2,2.3683525E1,1.7686153E2,1.2744849E2],"tree_param":{"num_deleted":"0","num_feature":"25","num_nodes":"15","size_leaf_vector":"1"}},{"base_weights":[1.405941E-3,2.1114466E-1,-5.027107E-1,-2.1850638E-1,3.2451507E-1,-6.880918E-1,-3.4769005E-1,7.563795E-4,-4.9104975E-3,-5.9581758E-3,3.7742746E-3,-9.420577E-3,-3.8942264E-3,-4.801271E-3,-8.2317553E-4],"categories":[],"categories_nodes":[],"categories_segments":[],"categories_sizes":[],"default_left":[0,0,0,0,0,0,0,0,0,0,0,0,0,0,0],"id":46,"left_children":[1,3,5,7,9,11,13,-1,-1,-1,-1,-1,-1,-1,-1],"loss_changes":[7.961436E1,2.5971777E1,6.118557E0,8.984795E0,2.0732471E1,7.1978073E0,4.265911E0,0E0,0E0,0E0,0E0,0E0,0E0,0E0,0E0],"parents":[2147483647,0,0,1,1,2,2,3,3,4,4,5,5,6,6],"right_children":[2,4,6,8,10,12,14,-1,-1,-1,-1,-1,-1,-1,-1],"split_conditions":[3.27938E-1,-7.881237E-1,-7.2010064E-1,-7.734913E-1,-1.193188E0,1.1688181E0,-9.3825236E-2,7.563795E-4,-4.9104975E-3,-5.9581758E-3,3.7742746E-3,-9.420577E-3,-3.8942264E-3,-4.801271E-3,-8.2317553E-4],"split_indices":[19,0,23,13,5,19,14,0,0,0,0,0,0,0,0],"split_type":[0,0,0,0,0,0,0,0,0,0,0,0,0,0,0],"sum_hessian":[7.5097314E2,5.307392E2,2.2023395E2,1.1061256E2,4.2012665E2,9.872962E1,1.21504326E2,5.354558E1,5.706697E1,2.2283178E1,3.9784348E2,5.219376E1,4.6535862E1,8.051378E1,4.0990547E1],"tree_param":{"num_deleted":"0","num_feature":"25","num_nodes":"15","size_leaf_vector":"1"}},{"base_weights":[-4.252495E-2,-1.5488762E-1,2.8376544E-1,-1.0082627E-1,-6.33514E-1,-4.711001E-1,4.0373912E-1,-6.6328794E-3,-4.4556896E-4,1.5021665E-3,-8.082193E-3,-4.960032E-4,-1.0621914E-2,-9.161174E-3,4.7226762E-3],"categories":[],"categories_nodes":[],"categories_segments":[],"categories_sizes":[],"default_left":[0,0,0,0,0,0,0,0,0,0,0,0,0,0,0],"id":47,"left_children":[1,3,5,7,9,11,13,-1,-1,-1,-1,-1,-1,-1,-1],"loss_changes":[2.8128527E1,1.4696618E1,1.799261E1,1.623016E1,8.022413E0,6.7786393E0,1.582267E1,0E0,0E0,0E0,0E0,0E0,0E0,0E0,0E0],"parents":[2147483647,0,0,1,1,2,2,3,3,4,4,5,5,6,6],"right_children":[2,4,6,8,10,12,14,-1,-1,-1,-1,-1,-1,-1,-1],"split_conditions":[5.9626424E-1,1.5275385E0,-7.844819E-1,-1.0589489E0,-1.108406E0,-5.2616775E-1,-1.176307E0,-6.6328794E-3,-4.4556896E-4,1.5021665E-3,-8.082193E-3,-4.960032E-4,-1.0621914E-2,-9.161174E-3,4.7226762E-3],"split_indices":[24,0,0,16,3,1,22,0,0,0,0,0,0,0,0],"split_type":[0,0,0,0,0,0,0,0,0,0,0,0,0,0,0],"sum_hessian":[7.650225E2,5.6944977E2,1.9557271E2,5.127453E2,5.670446E1,2.6419086E1,1.6915363E2,4.5649624E1,4.670957E2,1.0361733E1,4.6342728E1,1.6054638E1,1.0364448E1,7.7386713E0,1.6141496E2],"tree_param":{"num_deleted":"0","num_feature":"25","num_nodes":"15","size_leaf_vector":"1"}},{"base_weights":[-1.889925E-2,4.0679058E-1,-1.4401926E-1,1.6825294E-1,8.071973E-1,-2.4543646E-1,2.1611479E-1,-8.759366E-3,2.7600464E-3,1.6004503E-2,3.798008E-3,-7.41591E-4,-3.8201788E-3,8.235137E-4,8.499981E-3],"categories":[],"categories_nodes":[],"categories_segments":[],"categories_sizes":[],"default_left":[0,0,0,0,0,0,0,0,0,0,0,0,0,0,0],"id":48,"left_children":[1,3,5,7,9,11,13,-1,-1,-1,-1,-1,-1,-1,-1],"loss_changes":[4.0033474E1,1.6172764E1,2.1265316E1,1.2423161E1,2.091484E1,1.0583635E1,1.07956505E1,0E0,0E0,0E0,0E0,0E0,0E0,0E0,0E0],"parents":[2147483647,0,0,1,1,2,2,3,3,4,4,5,5,6,6],"right_children":[2,4,6,8,10,12,14,-1,-1,-1,-1,-1,-1,-1,-1],"split_conditions":[-6.836263E-1,-2.779949E-1,3.8952544E-1,-1.1071955E0,4.5184758E-2,-1.6559128E-2,1.0215026E0,-8.759366E-3,2.7600464E-3,1.6004503E-2,3.798008E-3,-7.41591E-4,-3.8201788E-3,8.235137E-4,8.499981E-3],"split_indices":[19,9,12,19,13,19,24,0,0,0,0,0,0,0,0],"split_type":[0,0,0,0,0,0,0,0,0,0,0,0,0,0,0],"sum_hessian":[7.4952856E2,1.6974887E2,5.797797E2,1.0726637E2,6.24825E1,4.5263254E2,1.2714718E2,9.366753E0,9.789961E1,2.0916525E1,4.156597E1,2.0149478E2,2.5113774E2,1.05924644E2,2.122253E1],"tree_param":{"num_deleted":"0","num_feature":"25","num_nodes":"15","size_leaf_vector":"1"}},{"base_weights":[-1.0936177E-2,2.9566178E-1,-2.3572321E-1,7.206371E-2,4.6473938E-1,-3.7852743E-1,1.859788E-1,2.9477556E-3,-4.8658056E-3,-9.651096E-4,5.5052093E-3,-3.4506493E-3,-1.0494668E-2,4.271058E-3,-3.6811207E-3],"categories":[],"categories_nodes":[],"categories_segments":[],"categories_sizes":[],"default_left":[0,0,0,0,0,0,0,0,0,0,0,0,0,0,0],"id":49,"left_children":[1,3,5,7,9,11,13,-1,-1,-1,-1,-1,-1,-1,-1],"loss_changes":[5.287013E1,1.2235455E1,2.6723637E1,1.7676046E1,8.94117E0,7.0682983E0,1.520581E1,0E0,0E0,0E0,0E0,0E0,0E0,0E0,0E0],"parents":[2147483647,0,0,1,1,2,2,3,3,4,4,5,5,6,6],"right_children":[2,4,6,8,10,12,14,-1,-1,-1,-1,-1,-1,-1,-1],"split_conditions":[-3.2033807E-1,1.4763443E-1,1.9736095E-1,6.37011E-2,-7.844819E-1,1.164254E0,7.170581E-1,2.9477556E-3,-4.8658056E-3,-9.651096E-4,5.5052093E-3,-3.4506493E-3,-1.0494668E-2,4.271058E-3,-3.6811207E-3],"split_indices":[19,23,20,15,0,24,19,0,0,0,0,0,0,0,0],"split_type":[0,0,0,0,0,0,0,0,0,0,0,0,0,0,0],"sum_hessian":[7.6512036E2,3.2352863E2,4.415917E2,1.3991847E2,1.8361014E2,3.299579E2,1.1163383E2,1.0037487E2,3.9543602E1,2.4325903E1,1.5928424E2,3.1572568E2,1.423223E1,7.7943756E1,3.3690067E1],"tree_param":{"num_deleted":"0","num_feature":"25","num_nodes":"15","size_leaf_vector":"1"}},{"base_weights":[-1.8848317E-2,1.6333248E-1,-4.091232E-1,6.967767E-5,3.48205E-1,-5.0554085E-1,-1.4397064E-1,-5.6131487E-3,4.47832E-4,-7.139307E-4,5.2812886E-3,-4.564352E-3,-1.2815495E-2,2.1830208E-3,-7.750427E-3],"categories":[],"categories_nodes":[],"categories_segments":[],"categories_sizes":[],"default_left":[0,0,0,0,0,0,0,0,0,0,0,0,0,0,0],"id":50,"left_children":[1,3,5,7,9,11,13,-1,-1,-1,-1,-1,-1,-1,-1],"loss_changes":[5.3749577E1,1.5557928E1,6.077427E0,6.9211893E0,1.8287333E1,6.122509E0,1.5154993E1,0E0,0E0,0E0,0E0,0E0,0E0,0E0,0E0],"parents":[2147483647,0,0,1,1,2,2,3,3,4,4,5,5,6,6],"right_children":[2,4,6,8,10,12,14,-1,-1,-1,-1,-1,-1,-1,-1],"split_conditions":[2.5145358E-1,1.6942725E-1,-1.4533945E-2,-1.0287261E0,-5.6996214E-1,-8.51105E-2,2.1981246E0,-5.6131487E-3,4.47832E-4,-7.139307E-4,5.2812886E-3,-4.564352E-3,-1.2815495E-2,2.1830208E-3,-7.750427E-3],"split_indices":[19,23,5,0,5,20,15,0,0,0,0,0,0,0,0],"split_type":[0,0,0,0,0,0,0,0,0,0,0,0,0,0,0],"sum_hessian":[7.540254E2,5.144575E2,2.3956789E2,2.737269E2,2.4073062E2,1.75019E2,6.454889E1,1.9341248E1,2.5438565E2,7.2427246E1,1.6830338E2,1.6609663E2,8.922375E0,4.1423454E1,2.3125435E1],"tree_param":{"num_deleted":"0","num_feature":"25","num_nodes":"15","size_leaf_vector":"1"}},{"base_weights":[-4.273654E-3,1.2856998E-1,-3.4922668E-1,-1.4351629E-1,2.877991E-1,-5.1777625E-1,-2.0956647E-1,5.2070925E-3,-2.1496636E-3,3.365672E-4,4.27386E-3,2.4693958E-3,-5.9535014E-3,6.9048647E-3,-2.8268902E-3],"categories":[],"categories_nodes":[],"categories_segments":[],"categories_sizes":[],"default_left":[0,0,0,0,0,0,0,0,0,0,0,0,0,0,0],"id":51,"left_children":[1,3,5,7,9,11,13,-1,-1,-1,-1,-1,-1,-1,-1],"loss_changes":[3.5175877E1,2.4052217E1,4.915331E0,9.853739E0,1.2400024E1,5.8435783E0,7.9870777E0,0E0,0E0,0E0,0E0,0E0,0E0,0E0,0E0],"parents":[2147483647,0,0,1,1,2,2,3,3,4,4,5,5,6,6],"right_children":[2,4,6,8,10,12,14,-1,-1,-1,-1,-1,-1,-1,-1],"split_conditions":[3.676718E-1,-2.8970677E-1,-2.9764917E-1,-1.5502193E0,-5.251465E-1,-1.3010265E0,-2.5566626E-1,5.2070925E-3,-2.1496636E-3,3.365672E-4,4.27386E-3,2.4693958E-3,-5.9535014E-3,6.9048647E-3,-2.8268902E-3],"split_indices":[19,23,13,23,13,4,8,0,0,0,0,0,0,0,0],"split_type":[0,0,0,0,0,0,0,0,0,0,0,0,0,0,0],"sum_hessian":[7.656366E2,5.532166E2,2.1242E2,2.0426794E2,3.4894867E2,9.502782E1,1.1739217E2,1.9228172E1,1.8503978E2,1.2415105E2,2.2479762E2,8.550877E0,8.6476944E1,8.186246E0,1.0920593E2],"tree_param":{"num_deleted":"0","num_feature":"25","num_nodes":"15","size_leaf_vector":"1"}},{"base_weights":[3.795839E-2,4.695422E-1,-1.21658675E-1,1.28979E-1,5.367346E-1,-2.3522118E-1,2.514523E-1,3.6091374E-3,-6.6138636E-3,1.4209138E-2,4.8627253E-3,-2.1000698E-3,-1.0278116E-2,1.3807607E-3,1.2745156E-2],"categories":[],"categories_nodes":[],"categories_segments":[],"categories_sizes":[],"default_left":[0,0,0,0,0,0,0,0,0,0,0,0,0,0,0],"id":52,"left_children":[1,3,5,7,9,11,13,-1,-1,-1,-1,-1,-1,-1,-1],"loss_changes":[5.1302776E1,4.5314255E0,2.3102741E1,6.5531697E0,6.787052E0,8.126909E0,1.4599789E1,0E0,0E0,0E0,0E0,0E0,0E0,0E0,0E0],"parents":[2147483647,0,0,1,1,2,2,3,3,4,4,5,5,6,6],"right_children":[2,4,6,8,10,12,14,-1,-1,-1,-1,-1,-1,-1,-1],"split_conditions":[-5.92022E-1,-7.316699E-1,3.0495432E-1,-7.450936E-1,-7.2472763E-1,2.7378163E-1,1.1376823E0,3.6091374E-3,-6.6138636E-3,1.4209138E-2,4.8627253E-3,-2.1000698E-3,-1.0278116E-2,1.3807607E-3,1.2745156E-2],"split_indices":[19,2,22,2,11,11,23,0,0,0,0,0,0,0,0],"split_type":[0,0,0,0,0,0,0,0,0,0,0,0,0,0,0],"sum_hessian":[7.428965E2,2.000488E2,5.4284766E2,3.344633E1,1.6660248E2,4.1646057E2,1.263871E2,2.6278263E1,7.168066E0,7.5287213E0,1.5907376E2,4.048464E2,1.161417E1,1.14799904E2,1.1587202E1],"tree_param":{"num_deleted":"0","num_feature":"25","num_nodes":"15","size_leaf_vector":"1"}},{"base_weights":[3.4743644E-2,2.1761338E-1,-3.5534E-1,-2.0025828E-1,3.3352154E-1,-4.5007837E-1,9.8553985E-2,9.601307E-3,-2.8854352E-3,-1.9859982E-4,4.986151E-3,-3.7971023E-3,-8.472473E-3,7.938535E-3,-4.310288E-3],"categories":[],"categories_nodes":[],"categories_segments":[],"categories_sizes":[],"default_left":[0,0,0,0,0,0,0,0,0,0,0,0,0,0,0],"id":53,"left_children":[1,3,5,7,9,11,13,-1,-1,-1,-1,-1,-1,-1,-1],"loss_changes":[5.307425E1,2.4595724E1,1.0257259E1,1.16069355E1,2.3161835E1,5.174835E0,1.5745708E1,0E0,0E0,0E0,0E0,0E0,0E0,0E0,0E0],"parents":[2147483647,0,0,1,1,2,2,3,3,4,4,5,5,6,6],"right_children":[2,4,6,8,10,12,14,-1,-1,-1,-1,-1,-1,-1,-1],"split_conditions":[2.5145358E-1,-7.844819E-1,1.0089843E0,-1.3103286E0,-3.642605E-1,2.001087E0,2.1981246E0,9.601307E-3,-2.8854352E-3,-1.9859982E-4,4.986151E-3,-3.7971023E-3,-8.472473E-3,7.938535E-3,-4.310288E-3],"split_indices":[19,0,15,23,23,19,15,0,0,0,0,0,0,0,0],"split_type":[0,0,0,0,0,0,0,0,0,0,0,0,0,0,0],"sum_hessian":[7.419355E2,5.054327E2,2.365028E2,1.09594666E2,3.9583804E2,1.9567023E2,4.0832577E1,7.050475E0,1.025442E2,1.2632344E2,2.695146E2,1.6788191E2,2.7788313E1,1.7438377E1,2.33942E1],"tree_param":{"num_deleted":"0","num_feature":"25","num_nodes":"15","size_leaf_vector":"1"}},{"base_weights":[-1.7678311E-2,1.2918092E-1,-3.4746212E-1,-3.1195676E-1,2.4321997E-1,-4.7536087E-1,6.573905E-2,4.1015157E-3,-3.8778398E-3,-2.532618E-3,3.5879114E-3,4.531214E-3,-5.3013754E-3,5.2932873E-3,-2.920587E-3],"categories":[],"categories_nodes":[],"categories_segments":[],"categories_sizes":[],"default_left":[0,0,0,0,0,0,0,0,0,0,0,0,0,0,0],"id":54,"left_children":[1,3,5,7,9,11,13,-1,-1,-1,-1,-1,-1,-1,-1],"loss_changes":[3.7068863E1,2.6720795E1,1.2493252E1,6.1401606E0,2.4271181E1,9.404655E0,9.545596E0,0E0,0E0,0E0,0E0,0E0,0E0,0E0,0E0],"parents":[2147483647,0,0,1,1,2,2,3,3,4,4,5,5,6,6],"right_children":[2,4,6,8,10,12,14,-1,-1,-1,-1,-1,-1,-1,-1],"split_conditions":[2.864397E-1,-7.844819E-1,1.9504595E-1,-7.346211E-1,-8.210597E-1,-1.3263283E0,2.9685503E-1,4.1015157E-3,-3.8778398E-3,-2.532618E-3,3.5879114E-3,4.531214E-3,-5.3013754E-3,5.2932873E-3,-2.920587E-3],"split_indices":[19,0,15,24,23,20,0,0,0,0,0,0,0,0,0],"split_type":[0,0,0,0,0,0,0,0,0,0,0,0,0,0,0],"sum_hessian":[7.6345593E2,5.286472E2,2.3480875E2,1.08233116E2,4.204141E2,1.7919258E2,5.561617E1,9.866324E0,9.836679E1,7.915992E1,3.4125418E2,9.5775585E0,1.6961502E2,2.4017664E1,3.1598505E1],"tree_param":{"num_deleted":"0","num_feature":"25","num_nodes":"15","size_leaf_vector":"1"}},{"base_weights":[-2.8273638E-2,1.3286035E-1,-3.9055517E-1,-2.8675622E-1,2.4440344E-1,-5.7694995E-1,-9.346741E-2,-4.1089114E-3,3.5189635E-3,-6.335142E-3,2.90077E-3,-9.344156E-3,-3.7294137E-3,1.4273163E-3,-6.467619E-3],"categories":[],"categories_nodes":[],"categories_segments":[],"categories_sizes":[],"default_left":[0,0,0,0,0,0,0,0,0,0,0,0,0,0,0],"id":55,"left_children":[1,3,5,7,9,11,13,-1,-1,-1,-1,-1,-1,-1,-1],"loss_changes":[4.458512E1,2.4819168E1,1.2965118E1,8.984258E0,1.6955225E1,1.01727295E1,1.2093618E1,0E0,0E0,0E0,0E0,0E0,0E0,0E0,0E0],"parents":[2147483647,0,0,1,1,2,2,3,3,4,4,5,5,6,6],"right_children":[2,4,6,8,10,12,14,-1,-1,-1,-1,-1,-1,-1,-1],"split_conditions":[2.5145358E-1,-7.790641E-1,1.1938729E0,5.625944E-2,-1.1689368E0,-9.118292E-1,2.2986047E0,-4.1089114E-3,3.5189635E-3,-6.335142E-3,2.90077E-3,-9.344156E-3,-3.7294137E-3,1.4273163E-3,-6.467619E-3],"split_indices":[19,0,19,19,3,23,19,0,0,0,0,0,0,0,0],"split_type":[0,0,0,0,0,0,0,0,0,0,0,0,0,0,0],"sum_hessian":[7.618706E2,5.277663E2,2.341043E2,1.10500626E2,4.172657E2,1.4327231E2,9.0831985E1,9.2816505E1,1.768412E1,1.9998207E1,3.972675E2,5.0756336E1,9.2515976E1,6.417709E1,2.6654892E1],"tree_param":{"num_deleted":"0","num_feature":"25","num_nodes":"15","size_leaf_vector":"1"}},{"base_weights":[-2.7061183E-2,-1.4917223E-1,2.2450702E-1,-1.2934895E-1,-1.0213234E-2,-4.1779405E-1,3.0852014E-1,-2.1237975E-3,2.2048347E-3,-8.330809E-4,-9.03064E-3,2.1932947E-3,5.7273763E-3],"categories":[],"categories_nodes":[],"categories_segments":[],"categories_sizes":[],"default_left":[0,0,0,0,0,0,0,0,0,0,0,0,0],"id":56,"left_children":[1,3,5,7,-1,9,11,-1,-1,-1,-1,-1,-1],"loss_changes":[2.3713646E1,8.850462E0,1.374345E1,1.4836188E1,0E0,4.7306933E0,5.1458435E0,0E0,0E0,0E0,0E0,0E0,0E0],"parents":[2147483647,0,0,1,1,2,2,3,3,5,5,6,6],"right_children":[2,4,6,8,-1,10,12,-1,-1,-1,-1,-1,-1],"split_conditions":[3.7600103E-1,2.3643084E0,-1.0365402E0,3.249472E-1,-1.0213234E-2,8.578884E-1,4.7406593E-1,-2.1237975E-3,2.2048347E-3,-8.330809E-4,-9.03064E-3,2.1932947E-3,5.7273763E-3],"split_indices":[23,20,12,15,0,23,22,0,0,0,0,0,0],"split_type":[0,0,0,0,0,0,0,0,0,0,0,0,0],"sum_hessian":[7.69857E2,5.185568E2,2.5130016E2,5.081552E2,1.0401646E1,2.8608463E1,2.226917E2,4.109996E2,9.7155594E1,1.7628914E1,1.0979549E1,1.6785857E2,5.4833122E1],"tree_param":{"num_deleted":"0","num_feature":"25","num_nodes":"13","size_leaf_vector":"1"}},{"base_weights":[1.3098675E-3,-2.4196902E-1,1.6403219E-1,-2.7584592E-1,4.705414E-3,-2.7391794E-1,2.767368E-1,-8.211014E-4,-4.1099186E-3,-7.4310345E-4,-6.911095E-3,-3.3943777E-3,3.5338108E-3],"categories":[],"categories_nodes":[],"categories_segments":[],"categories_sizes":[],"default_left":[0,0,0,0,0,0,0,0,0,0,0,0,0],"id":57,"left_children":[1,3,5,7,-1,9,11,-1,-1,-1,-1,-1,-1],"loss_changes":[2.9776222E1,7.406521E0,2.2322056E1,7.5177174E0,0E0,7.672337E0,1.7071985E1,0E0,0E0,0E0,0E0,0E0,0E0],"parents":[2147483647,0,0,1,1,2,2,3,3,5,5,6,6],"right_children":[2,4,6,8,-1,10,12,-1,-1,-1,-1,-1,-1],"split_conditions":[-3.871777E-1,2.1409476E0,-7.881237E-1,-4.807574E-1,4.705414E-3,-5.2867985E-1,-1.035357E0,-8.211014E-4,-4.1099186E-3,-7.4310345E-4,-6.911095E-3,-3.3943777E-3,3.5338108E-3],"split_indices":[23,20,0,16,0,4,9,0,0,0,0,0,0],"split_type":[0,0,0,0,0,0,0,0,0,0,0,0,0],"sum_hessian":[7.501709E2,3.0046783E2,4.497031E2,2.8741528E2,1.3052545E1,9.174969E1,3.579534E2,1.1876691E2,1.6864839E2,6.2854656E1,2.8895033E1,3.9219913E1,3.187335E2],"tree_param":{"num_deleted":"0","num_feature":"25","num_nodes":"13","size_leaf_vector":"1"}},{"base_weights":[1.4941125E-2,-4.4766986E-1,1.02983534E-1,4.9585914E-3,-5.395652E-1,-3.8386267E-1,1.7554532E-1,-6.8848566E-3,-6.2878337E-4,-6.021688E-3,-1.3542251E-3,7.875413E-4,5.4876213E-3],"categories":[],"categories_nodes":[],"categories_segments":[],"categories_sizes":[],"default_left":[0,0,0,0,0,0,0,0,0,0,0,0,0],"id":58,"left_children":[1,3,5,-1,7,9,11,-1,-1,-1,-1,-1,-1],"loss_changes":[3.0805468E1,1.0753408E1,2.2509459E1,0E0,7.813816E0,4.4046793E0,1.9953653E1,0E0,0E0,0E0,0E0,0E0,0E0],"parents":[2147483647,0,0,1,1,2,2,4,4,5,5,6,6],"right_children":[2,4,6,-1,8,10,12,-1,-1,-1,-1,-1,-1],"split_conditions":[-9.173047E-1,-1.2832357E0,-1.0421065E0,4.9585914E-3,4.3237147E-1,8.1183486E-2,8.4514916E-1,-6.8848566E-3,-6.2878337E-4,-6.021688E-3,-1.3542251E-3,7.875413E-4,5.4876213E-3],"split_indices":[0,23,12,0,23,24,23,0,0,0,0,0,0],"split_type":[0,0,0,0,0,0,0,0,0,0,0,0,0],"sum_hessian":[7.542131E2,1.1993589E2,6.342772E2,1.0254334E1,1.0968156E2,8.171672E1,5.525605E2,8.323426E1,2.64473E1,4.2738388E1,3.8978333E1,4.3973044E2,1.12830025E2],"tree_param":{"num_deleted":"0","num_feature":"25","num_nodes":"13","size_leaf_vector":"1"}},{"base_weights":[2.5368178E-2,2.9046413E-1,-1.4971355E-1,2.3357834E-1,8.758848E-1,-2.8035837E-1,2.6853904E-1,3.114655E-3,-8.8951335E-4,1.8063094E-3,1.1633007E-2,-2.5306349E-3,-9.896547E-3,-1.1931075E-3,4.3617073E-3],"categories":[],"categories_nodes":[],"categories_segments":[],"categories_sizes":[],"default_left":[0,0,0,0,0,0,0,0,0,0,0,0,0,0,0],"id":59,"left_children":[1,3,5,7,9,11,13,-1,-1,-1,-1,-1,-1,-1,-1],"loss_changes":[3.5267433E1,9.859343E0,2.5086033E1,6.981182E0,5.0654545E0,6.5113277E0,7.1682324E0,0E0,0E0,0E0,0E0,0E0,0E0,0E0,0E0],"parents":[2147483647,0,0,1,1,2,2,3,3,4,4,5,5,6,6],"right_children":[2,4,6,8,10,12,14,-1,-1,-1,-1,-1,-1,-1,-1],"split_conditions":[-3.688832E-1,1.1351744E0,2.2403027E-1,8.8187285E-2,-7.7679676E-1,1.7815183E-1,-1.01897314E-1,3.114655E-3,-8.8951335E-4,1.8063094E-3,1.1633007E-2,-2.5306349E-3,-9.896547E-3,-1.1931075E-3,4.3617073E-3],"split_indices":[19,22,2,18,19,4,19,0,0,0,0,0,0,0,0],"split_type":[0,0,0,0,0,0,0,0,0,0,0,0,0,0,0],"sum_hessian":[7.579166E2,3.0120102E2,4.5671558E2,2.758003E2,2.540074E1,3.4826248E2,1.0845311E2,2.2218057E2,5.3619724E1,7.905632E0,1.7495108E1,3.3666388E2,1.1598592E1,3.2815674E1,7.563744E1],"tree_param":{"num_deleted":"0","num_feature":"25","num_nodes":"15","size_leaf_vector":"1"}},{"base_weights":[1.8538212E-2,1.4138007E-1,-3.6694556E-1,-6.2061366E-2,3.1544548E-1,2.3751315E-1,-4.2229855E-1,-4.8022005E-3,3.482316E-4,3.4985899E-3,-6.7396886E-3,5.480348E-3,-1.1187826E-3,-5.1649837E-3,-1.2281025E-4],"categories":[],"categories_nodes":[],"categories_segments":[],"categories_sizes":[],"default_left":[0,0,0,0,0,0,0,0,0,0,0,0,0,0,0],"id":60,"left_children":[1,3,5,7,9,11,13,-1,-1,-1,-1,-1,-1,-1,-1],"loss_changes":[3.456059E1,1.9615208E1,6.001953E0,1.038748E1,1.0395205E1,1.736182E0,6.248726E0,0E0,0E0,0E0,0E0,0E0,0E0,0E0,0E0],"parents":[2147483647,0,0,1,1,2,2,3,3,4,4,5,5,6,6],"right_children":[2,4,6,8,10,12,14,-1,-1,-1,-1,-1,-1,-1,-1],"split_conditions":[5.127104E-1,-6.5912776E-2,-1.0571531E0,-9.173047E-1,2.3515236E0,-2.9205188E-1,2.75916E-1,-4.8022005E-3,3.482316E-4,3.4985899E-3,-6.7396886E-3,5.480348E-3,-1.1187826E-3,-5.1649837E-3,-1.2281025E-4],"split_indices":[19,23,0,0,20,8,1,0,0,0,0,0,0,0,0],"split_type":[0,0,0,0,0,0,0,0,0,0,0,0,0,0,0],"sum_hessian":[7.2774615E2,5.523594E2,1.7538676E2,2.5498521E2,2.9737415E2,1.4437486E1,1.6094928E2,4.7220867E1,2.0776436E2,2.880033E2,9.370851E0,7.3429217E0,7.0945644E0,1.3066891E2,3.0280354E1],"tree_param":{"num_deleted":"0","num_feature":"25","num_nodes":"15","size_leaf_vector":"1"}},{"base_weights":[-1.2049772E-2,3.7894896E-1,-1.6283046E-1,-4.7254516E-3,4.14299E-1,-2.6475075E-1,1.9391093E-1,5.166187E-3,9.527782E-4,-1.0185303E-3,-4.8640524E-3,2.999603E-3,-1.31824445E-2],"categories":[],"categories_nodes":[],"categories_segments":[],"categories_sizes":[],"default_left":[0,0,0,0,0,0,0,0,0,0,0,0,0],"id":61,"left_children":[1,3,5,-1,7,9,11,-1,-1,-1,-1,-1,-1],"loss_changes":[4.4270393E1,6.48658E0,1.9753532E1,0E0,6.5182724E0,1.5183559E1,1.979758E1,0E0,0E0,0E0,0E0,0E0,0E0],"parents":[2147483647,0,0,1,1,2,2,4,4,5,5,6,6],"right_children":[2,4,6,-1,8,10,12,-1,-1,-1,-1,-1,-1],"split_conditions":[-5.8027774E-1,-9.6986884E-1,3.1842044E-1,-4.7254516E-3,-6.199129E-2,3.27938E-1,2.3931925E0,5.166187E-3,9.527782E-4,-1.0185303E-3,-4.8640524E-3,2.999603E-3,-1.31824445E-2],"split_indices":[19,9,9,0,0,19,16,0,0,0,0,0,0],"split_type":[0,0,0,0,0,0,0,0,0,0,0,0,0],"sum_hessian":[7.48871E2,2.0799445E2,5.408765E2,7.79778E0,2.0019667E2,4.2088763E2,1.199889E2,1.5111131E2,4.9085358E1,2.4343936E2,1.7744829E2,1.128745E2,7.1143985E0],"tree_param":{"num_deleted":"0","num_feature":"25","num_nodes":"13","size_leaf_vector":"1"}},{"base_weights":[2.8158043E-2,2.4454121E-1,-2.5460058E-1,7.165903E-2,4.9461383E-1,-3.7722024E-1,1.9596389E-1,-1.3118826E-2,1.1836449E-3,9.84028E-4,6.0112732E-3,-1.5536762E-3,-5.4012854E-3,-2.2202989E-4,8.162969E-3],"categories":[],"categories_nodes":[],"categories_segments":[],"categories_sizes":[],"default_left":[0,0,0,0,0,0,0,0,0,0,0,0,0,0,0],"id":62,"left_children":[1,3,5,7,9,11,13,-1,-1,-1,-1,-1,-1,-1,-1],"loss_changes":[4.55341E1,1.8188288E1,1.790098E1,1.6335562E1,7.204941E0,9.095558E0,9.449244E0,0E0,0E0,0E0,0E0,0E0,0E0,0E0,0E0],"parents":[2147483647,0,0,1,1,2,2,3,3,4,4,5,5,6,6],"right_children":[2,4,6,8,10,12,14,-1,-1,-1,-1,-1,-1,-1,-1],"split_conditions":[-2.3605932E-2,4.2295045E-1,3.029123E-1,-1.051557E0,-7.268249E-1,-4.4679776E-1,-2.0110121E-2,-1.3118826E-2,1.1836449E-3,9.84028E-4,6.0112732E-3,-1.5536762E-3,-5.4012854E-3,-2.2202989E-4,8.162969E-3],"split_indices":[19,23,5,0,0,9,23,0,0,0,0,0,0,0,0],"split_type":[0,0,0,0,0,0,0,0,0,0,0,0,0,0,0],"sum_hessian":[7.421957E2,4.2052267E2,3.21673E2,2.493953E2,1.7112738E2,2.5298636E2,6.868664E1,7.259546E0,2.4213574E2,3.66648E1,1.3446257E2,1.0794197E2,1.4504439E2,5.152859E1,1.7158045E1],"tree_param":{"num_deleted":"0","num_feature":"25","num_nodes":"15","size_leaf_vector":"1"}},{"base_weights":[-6.0343623E-2,2.2900616E-1,-2.6203698E-1,-2.1870458E-1,3.1618193E-1,-4.9589986E-1,-1.14945464E-1,5.9168944E-3,-4.1076397E-3,1.1596872E-3,5.0377445E-3,5.2817077E-3,-5.4592276E-3,-1.8489444E-4,-6.9658333E-3],"categories":[],"categories_nodes":[],"categories_segments":[],"categories_sizes":[],"default_left":[0,0,0,0,0,0,0,0,0,0,0,0,0,0,0],"id":63,"left_children":[1,3,5,7,9,11,13,-1,-1,-1,-1,-1,-1,-1,-1],"loss_changes":[4.4664112E1,1.2342497E1,1.5451218E1,8.3119755E0,9.842777E0,9.190044E0,1.5587005E1,0E0,0E0,0E0,0E0,0E0,0E0,0E0,0E0],"parents":[2147483647,0,0,1,1,2,2,3,3,4,4,5,5,6,6],"right_children":[2,4,6,8,10,12,14,-1,-1,-1,-1,-1,-1,-1,-1],"split_conditions":[-3.4774277E-1,-7.4011755E-1,-4.5113534E-1,-1.4410925E0,-3.5196528E-1,-1.7463243E0,2.1264677E0,5.9168944E-3,-4.1076397E-3,1.1596872E-3,5.0377445E-3,5.2817077E-3,-5.4592276E-3,-1.8489444E-4,-6.9658333E-3],"split_indices":[19,23,0,23,22,23,0,0,0,0,0,0,0,0,0],"split_type":[0,0,0,0,0,0,0,0,0,0,0,0,0,0,0],"sum_hessian":[7.6329333E2,3.1346307E2,4.498303E2,5.084229E1,2.6262076E2,1.7276979E2,2.7706052E2,9.342189E0,4.15001E1,1.2781981E2,1.3480096E2,7.6011057E0,1.6516869E2,2.3853484E2,3.8525677E1],"tree_param":{"num_deleted":"0","num_feature":"25","num_nodes":"15","size_leaf_vector":"1"}},{"base_weights":[-5.882602E-3,1.381129E-1,-3.5900357E-1,2.1112012E-3,3.272956E-1,-4.251954E-1,1.5453929E-1,2.5429865E-3,-8.303361E-4,-8.906497E-4,4.9125594E-3,3.0738553E-3,-4.6128267E-3,7.885045E-3,-2.6306743E-3],"categories":[],"categories_nodes":[],"categories_segments":[],"categories_sizes":[],"default_left":[0,0,0,0,0,0,0,0,0,0,0,0,0,0,0],"id":64,"left_children":[1,3,5,7,9,11,13,-1,-1,-1,-1,-1,-1,-1,-1],"loss_changes":[3.845225E1,1.38211E1,7.5115185E0,6.753491E0,1.5381062E1,5.278496E0,7.022838E0,0E0,0E0,0E0,0E0,0E0,0E0,0E0,0E0],"parents":[2147483647,0,0,1,1,2,2,3,3,4,4,5,5,6,6],"right_children":[2,4,6,8,10,12,14,-1,-1,-1,-1,-1,-1,-1,-1],"split_conditions":[3.075819E-1,3.063127E-1,6.424586E-1,-6.5857273E-1,-6.353522E-1,-3.1140432E0,9.371587E-1,2.5429865E-3,-8.303361E-4,-8.906497E-4,4.9125594E-3,3.0738553E-3,-4.6128267E-3,7.885045E-3,-2.6306743E-3],"split_indices":[19,23,23,19,18,24,23,0,0,0,0,0,0,0,0],"split_type":[0,0,0,0,0,0,0,0,0,0,0,0,0,0,0],"sum_hessian":[7.5424695E2,5.362032E2,2.1804378E2,3.1253546E2,2.236677E2,1.933008E2,2.4742985E1,7.83845E1,2.3415097E2,6.332277E1,1.6034492E2,8.722109E0,1.8457869E2,9.473377E0,1.5269608E1],"tree_param":{"num_deleted":"0","num_feature":"25","num_nodes":"15","size_leaf_vector":"1"}},{"base_weights":[1.60292E-2,3.699897E-1,-1.3375539E-1,-1.15815416E-1,4.57986E-1,-1.7108391E-1,5.758855E-1,2.9854204E-3,-7.848682E-3,-8.5454306E-4,5.401512E-3,-5.512086E-3,-1.2162775E-3,3.2416524E-4,1.0132293E-2],"categories":[],"categories_nodes":[],"categories_segments":[],"categories_sizes":[],"default_left":[0,0,0,0,0,0,0,0,0,0,0,0,0,0,0],"id":65,"left_children":[1,3,5,7,9,11,13,-1,-1,-1,-1,-1,-1,-1,-1],"loss_changes":[4.050477E1,9.763599E0,1.4320866E1,1.0112892E1,8.642494E0,9.536468E0,6.398754E0,0E0,0E0,0E0,0E0,0E0,0E0,0E0,0E0],"parents":[2147483647,0,0,1,1,2,2,3,3,4,4,5,5,6,6],"right_children":[2,4,6,8,10,12,14,-1,-1,-1,-1,-1,-1,-1,-1],"split_conditions":[-5.395637E-1,-7.881237E-1,1.244171E0,-8.311737E-1,-7.936552E-1,-1.1559551E0,-2.391521E-1,2.9854204E-3,-7.848682E-3,-8.5454306E-4,5.401512E-3,-5.512086E-3,-1.2162775E-3,3.2416524E-4,1.0132293E-2],"split_indices":[19,0,23,0,23,4,9,0,0,0,0,0,0,0,0],"split_type":[0,0,0,0,0,0,0,0,0,0,0,0,0,0,0],"sum_hessian":[7.6205054E2,2.2615253E2,5.35898E2,3.4633522E1,1.91519E2,5.0983844E2,2.6059595E1,2.1729687E1,1.2903836E1,2.5148306E1,1.663707E2,5.7527927E1,4.5231052E2,1.2098908E1,1.3960688E1],"tree_param":{"num_deleted":"0","num_feature":"25","num_nodes":"15","size_leaf_vector":"1"}},{"base_weights":[5.0281845E-3,1.6701391E-1,-3.4308124E-1,-4.0933505E-1,2.2627029E-1,-4.5159572E-1,1.9266399E-2,-5.889664E-3,1.3613452E-3,-6.3859755E-3,2.7422442E-3,-3.94996E-4,-5.0071436E-3,3.4222596E-3,-4.1379365E-3],"categories":[],"categories_nodes":[],"categories_segments":[],"categories_sizes":[],"default_left":[0,0,0,0,0,0,0,0,0,0,0,0,0,0,0],"id":66,"left_children":[1,3,5,7,9,11,13,-1,-1,-1,-1,-1,-1,-1,-1],"loss_changes":[4.2813232E1,1.7787727E1,9.489233E0,4.8480196E0,1.9687094E1,3.7367897E0,8.047338E0,0E0,0E0,0E0,0E0,0E0,0E0,0E0,0E0],"parents":[2147483647,0,0,1,1,2,2,3,3,4,4,5,5,6,6],"right_children":[2,4,6,8,10,12,14,-1,-1,-1,-1,-1,-1,-1,-1],"split_conditions":[2.5145358E-1,-9.688011E-1,1.9352025E-1,5.625944E-2,-1.1945934E0,-1.0586989E0,2.1981246E0,-5.889664E-3,1.3613452E-3,-6.3859755E-3,2.7422442E-3,-3.94996E-4,-5.0071436E-3,3.4222596E-3,-4.1379365E-3],"split_indices":[19,0,11,19,2,0,15,0,0,0,0,0,0,0,0],"split_type":[0,0,0,0,0,0,0,0,0,0,0,0,0,0,0],"sum_hessian":[7.57235E2,5.171226E2,2.4011238E2,4.7659657E1,4.6946295E2,1.8458675E2,5.552564E1,3.5792805E1,1.1866853E1,2.4015684E1,4.4544727E2,1.9850332E1,1.6473642E2,3.1926117E1,2.3599522E1],"tree_param":{"num_deleted":"0","num_feature":"25","num_nodes":"15","size_leaf_vector":"1"}},{"base_weights":[2.1363974E-3,-1.9318251E-1,1.7062975E-1,-6.426947E-1,-1.2519893E-1,-1.01587474E-1,3.262449E-1,-8.407433E-3,1.2967858E-3,-3.9320434E-3,-4.2092437E-5,4.648632E-4,-6.12646E-3,1.1802517E-2,2.7956965E-3],"categories":[],"categories_nodes":[],"categories_segments":[],"categories_sizes":[],"default_left":[0,0,0,0,0,0,0,0,0,0,0,0,0,0,0],"id":67,"left_children":[1,3,5,7,9,11,13,-1,-1,-1,-1,-1,-1,-1,-1],"loss_changes":[2.4724924E1,1.0552768E1,1.711893E1,7.064253E0,9.839073E0,1.1188019E1,9.909075E0,0E0,0E0,0E0,0E0,0E0,0E0,0E0,0E0],"parents":[2147483647,0,0,1,1,2,2,3,3,4,4,5,5,6,6],"right_children":[2,4,6,8,10,12,14,-1,-1,-1,-1,-1,-1,-1,-1],"split_conditions":[-1.6921593E-1,-1.0287261E0,-5.164001E-1,-2.2712122E-1,-9.622985E-1,-6.0620636E-1,-4.6663806E-1,-8.407433E-3,1.2967858E-3,-3.9320434E-3,-4.2092437E-5,4.648632E-4,-6.12646E-3,1.1802517E-2,2.7956965E-3],"split_indices":[23,0,8,3,24,22,5,0,0,0,0,0,0,0,0],"split_type":[0,0,0,0,0,0,0,0,0,0,0,0,0,0,0],"sum_hessian":[7.492889E2,3.4695233E2,4.0233655E2,4.4468666E1,3.0248367E2,1.4646785E2,2.5586871E2,3.5322823E1,9.1458435E0,9.338213E1,2.0910153E2,1.1426874E2,3.2199112E1,1.20010805E1,2.4386763E2],"tree_param":{"num_deleted":"0","num_feature":"25","num_nodes":"15","size_leaf_vector":"1"}},{"base_weights":[-5.6916904E-3,2.8067532E-1,-1.9530305E-1,-1.921102E-1,3.6502174E-1,-6.248102E-1,-1.4818317E-1,9.626339E-3,-4.7562933E-3,-2.4505802E-3,4.0854714E-3,8.3524945E-5,-7.7622687E-3,2.7323843E-3,-1.9274538E-3],"categories":[],"categories_nodes":[],"categories_segments":[],"categories_sizes":[],"default_left":[0,0,0,0,0,0,0,0,0,0,0,0,0,0,0],"id":68,"left_children":[1,3,5,7,9,11,13,-1,-1,-1,-1,-1,-1,-1,-1],"loss_changes":[4.053836E1,1.1930504E1,8.997587E0,1.5413958E1,6.81126E0,4.233759E0,7.678321E0,0E0,0E0,0E0,0E0,0E0,0E0,0E0,0E0],"parents":[2147483647,0,0,1,1,2,2,3,3,4,4,5,5,6,6],"right_children":[2,4,6,8,10,12,14,-1,-1,-1,-1,-1,-1,-1,-1],"split_conditions":[-3.688832E-1,-8.210597E-1,-1.1815621E0,-1.4410925E0,-1.0938845E0,-1.3694079E0,-1.3974689E0,9.626339E-3,-4.7562933E-3,-2.4505802E-3,4.0854714E-3,8.3524945E-5,-7.7622687E-3,2.7323843E-3,-1.9274538E-3],"split_indices":[19,23,22,23,19,20,23,0,0,0,0,0,0,0,0],"split_type":[0,0,0,0,0,0,0,0,0,0,0,0,0,0,0],"sum_hessian":[7.4457477E2,2.9641843E2,4.481563E2,4.4682533E1,2.517359E2,4.3093193E1,4.050631E2,8.335915E0,3.634662E1,1.6455458E1,2.3528044E2,8.498939E0,3.4594254E1,3.8245613E1,3.668175E2],"tree_param":{"num_deleted":"0","num_feature":"25","num_nodes":"15","size_leaf_vector":"1"}},{"base_weights":[-3.726041E-3,3.14381E-1,-2.0604886E-1,-1.0008173E-1,3.9047182E-1,-2.9912746E-1,2.2942717E-1,5.007928E-3,-6.3245855E-3,2.6470905E-3,5.7858215E-3,-2.2631509E-3,-6.533613E-3,4.6217896E-4,1.3822917E-2],"categories":[],"categories_nodes":[],"categories_segments":[],"categories_sizes":[],"default_left":[0,0,0,0,0,0,0,0,0,0,0,0,0,0,0],"id":69,"left_children":[1,3,5,7,9,11,13,-1,-1,-1,-1,-1,-1,-1,-1],"loss_changes":[4.8152485E1,9.212E0,1.860459E1,1.5003768E1,5.66539E0,9.581192E0,1.7064957E1,0E0,0E0,0E0,0E0,0E0,0E0,0E0,0E0],"parents":[2147483647,0,0,1,1,2,2,3,3,4,4,5,5,6,6],"right_children":[2,4,6,8,10,12,14,-1,-1,-1,-1,-1,-1,-1,-1],"split_conditions":[-3.571377E-1,-7.881237E-1,1.0089843E0,-7.6763785E-1,6.9908214E-1,1.6113405E0,9.513962E-1,5.007928E-3,-6.3245855E-3,2.6470905E-3,5.7858215E-3,-2.2631509E-3,-6.533613E-3,4.6217896E-4,1.3822917E-2],"split_indices":[19,0,15,9,23,0,23,0,0,0,0,0,0,0,0],"split_type":[0,0,0,0,0,0,0,0,0,0,0,0,0,0,0],"sum_hessian":[7.4616394E2,2.8986407E2,4.5629984E2,4.4912533E1,2.4495155E2,3.7620328E2,8.009654E1,2.1126802E1,2.378573E1,1.4824698E2,9.670457E1,3.134192E2,6.2784084E1,7.0010765E1,1.0085781E1],"tree_param":{"num_deleted":"0","num_feature":"25","num_nodes":"15","size_leaf_vector":"1"}},{"base_weights":[4.0820207E-2,3.3830956E-1,-1.720087E-1,-1.242158E-1,4.1581437E-1,-3.0307317E-1,2.3784095E-1,3.0347346E-3,-5.690333E-3,-1.498941E-4,4.8264125E-3,-5.735078E-3,-2.2696955E-3,-1.325871E-3,5.5063004E-3],"categories":[],"categories_nodes":[],"categories_segments":[],"categories_sizes":[],"default_left":[0,0,0,0,0,0,0,0,0,0,0,0,0,0,0],"id":70,"left_children":[1,3,5,7,9,11,13,-1,-1,-1,-1,-1,-1,-1,-1],"loss_changes":[4.7086613E1,1.1168568E1,2.3367079E1,8.786394E0,7.6604576E0,6.641531E0,1.2312822E1,0E0,0E0,0E0,0E0,0E0,0E0,0E0,0E0],"parents":[2147483647,0,0,1,1,2,2,3,3,4,4,5,5,6,6],"right_children":[2,4,6,8,10,12,14,-1,-1,-1,-1,-1,-1,-1,-1],"split_conditions":[-3.2033807E-1,-7.881237E-1,1.9736095E-1,-7.360697E-1,-2.4794242E-1,-1.0151953E0,-3.184944E-2,3.0347346E-3,-5.690333E-3,-1.498941E-4,4.8264125E-3,-5.735078E-3,-2.2696955E-3,-1.325871E-3,5.5063004E-3],"split_indices":[19,0,20,20,24,0,0,0,0,0,0,0,0,0,0],"split_type":[0,0,0,0,0,0,0,0,0,0,0,0,0,0,0],"sum_hessian":[7.417769E2,3.0911313E2,4.3266376E2,4.4277237E1,2.648359E2,3.2802594E2,1.0463782E2,2.2735222E1,2.1542015E1,3.5669014E1,2.2916689E2,7.060276E1,2.574232E2,4.816883E1,5.6468987E1],"tree_param":{"num_deleted":"0","num_feature":"25","num_nodes":"15","size_leaf_vector":"1"}},{"base_weights":[-1.4410464E-2,-1.4549129E-1,2.7167854E-1,1.629453E-1,-1.8702003E-1,-2.6085338E-1,3.315596E-1,-1.3251815E-3,4.605616E-3,-4.2228005E-3,-1.1980782E-3,1.6397708E-3,-8.599994E-3,1.1346231E-2,2.7661186E-3],"categories":[],"categories_nodes":[],"categories_segments":[],"categories_sizes":[],"default_left":[0,0,0,0,0,0,0,0,0,0,0,0,0,0,0],"id":71,"left_children":[1,3,5,7,9,11,13,-1,-1,-1,-1,-1,-1,-1,-1],"loss_changes":[2.8963852E1,6.8140755E0,7.82592E0,5.634266E0,7.337221E0,6.527825E0,9.332659E0,0E0,0E0,0E0,0E0,0E0,0E0,0E0,0E0],"parents":[2147483647,0,0,1,1,2,2,3,3,4,4,5,5,6,6],"right_children":[2,4,6,8,10,12,14,-1,-1,-1,-1,-1,-1,-1,-1],"split_conditions":[3.7600103E-1,-1.3974689E0,-1.0391285E0,-1.7052608E0,-8.761248E-1,8.573464E-1,-8.278526E-1,-1.3251815E-3,4.605616E-3,-4.2228005E-3,-1.1980782E-3,1.6397708E-3,-8.599994E-3,1.1346231E-2,2.7661186E-3],"split_indices":[23,23,10,23,24,24,22,0,0,0,0,0,0,0,0],"split_type":[0,0,0,0,0,0,0,0,0,0,0,0,0,0,0],"sum_hessian":[7.702993E2,5.285971E2,2.4170221E2,6.2379196E1,4.662179E2,2.4092E1,2.176102E2,3.158119E1,3.0798008E1,1.02424164E2,3.6379373E2,1.4521617E1,9.570382E0,1.267759E1,2.0493262E2],"tree_param":{"num_deleted":"0","num_feature":"25","num_nodes":"15","size_leaf_vector":"1"}},{"base_weights":[-5.0510887E-2,2.1137998E-1,-2.2494242E-1,-1.6463944E-1,2.7789629E-1,-3.3853456E-1,1.76771E-1,1.1393264E-3,-1.2015994E-2,6.39787E-4,4.129442E-3,-8.237155E-3,-2.9899892E-3,8.098611E-3,9.780305E-4],"categories":[],"categories_nodes":[],"categories_segments":[],"categories_sizes":[],"default_left":[0,0,0,0,0,0,0,0,0,0,0,0,0,0,0],"id":72,"left_children":[1,3,5,7,9,11,13,-1,-1,-1,-1,-1,-1,-1,-1],"loss_changes":[3.423304E1,7.5412416E0,2.0578186E1,1.3330209E1,7.3406067E0,6.484192E0,4.909022E0,0E0,0E0,0E0,0E0,0E0,0E0,0E0,0E0],"parents":[2147483647,0,0,1,1,2,2,3,3,4,4,5,5,6,6],"right_children":[2,4,6,8,10,12,14,-1,-1,-1,-1,-1,-1,-1,-1],"split_conditions":[-3.571377E-1,-7.881237E-1,3.1484127E-1,-5.7773554E-1,-3.9170232E-1,-2.968507E-1,9.9621105E-1,1.1393264E-3,-1.2015994E-2,6.39787E-4,4.129442E-3,-8.237155E-3,-2.9899892E-3,8.098611E-3,9.780305E-4],"split_indices":[19,0,22,16,1,19,7,0,0,0,0,0,0,0,0],"split_type":[0,0,0,0,0,0,0,0,0,0,0,0,0,0,0],"sum_hessian":[7.4733575E2,2.9868274E2,4.48653E2,4.4672432E1,2.5401031E2,3.498761E2,9.877689E1,3.5914406E1,8.758027E0,9.887106E1,1.5513925E2,2.4867516E1,3.250086E2,9.928005E0,8.8848885E1],"tree_param":{"num_deleted":"0","num_feature":"25","num_nodes":"15","size_leaf_vector":"1"}},{"base_weights":[1.6100993E-2,1.5781201E-1,-3.2399648E-1,-2.0271605E-1,2.6364222E-1,-3.9200333E-1,2.3241596E-1,-5.491683E-4,-6.916981E-3,2.191475E-3,1.01221455E-2,-3.181583E-3,-8.209852E-3,8.642476E-3,-2.5994056E-3],"categories":[],"categories_nodes":[],"categories_segments":[],"categories_sizes":[],"default_left":[0,0,0,0,0,0,0,0,0,0,0,0,0,0,0],"id":73,"left_children":[1,3,5,7,9,11,13,-1,-1,-1,-1,-1,-1,-1,-1],"loss_changes":[3.653851E1,2.0468914E1,8.52936E0,8.778248E0,1.3570217E1,6.0454197E0,7.975403E0,0E0,0E0,0E0,0E0,0E0,0E0,0E0,0E0],"parents":[2147483647,0,0,1,1,2,2,3,3,4,4,5,5,6,6],"right_children":[2,4,6,8,10,12,14,-1,-1,-1,-1,-1,-1,-1,-1],"split_conditions":[3.075819E-1,-7.790641E-1,1.9387162E0,-5.2867985E-1,1.6970402E0,2.2986047E0,2.1721957E0,-5.491683E-4,-6.916981E-3,2.191475E-3,1.01221455E-2,-3.181583E-3,-8.209852E-3,8.642476E-3,-2.5994056E-3],"split_indices":[19,0,20,4,23,19,12,0,0,0,0,0,0,0,0],"split_type":[0,0,0,0,0,0,0,0,0,0,0,0,0,0,0],"sum_hessian":[7.560693E2,5.340702E2,2.2199913E2,1.20988235E2,4.1308194E2,1.9808403E2,2.39151E1,9.376057E1,2.7227667E1,3.9112634E2,2.1955582E1,1.7047932E2,2.7604696E1,1.0143199E1,1.3771901E1],"tree_param":{"num_deleted":"0","num_feature":"25","num_nodes":"15","size_leaf_vector":"1"}},{"base_weights":[3.0110811E-3,-3.504628E-1,5.7666585E-2,-2.6479623E-1,-1.2275453E-2,-2.858695E-1,1.2818068E-1,-4.3723825E-3,-4.8194484E-5,5.4078256E-3,-3.6589527E-3,1.557264E-3,-8.724525E-3],"categories":[],"categories_nodes":[],"categories_segments":[],"categories_sizes":[],"default_left":[0,0,0,0,0,0,0,0,0,0,0,0,0],"id":74,"left_children":[1,3,5,7,-1,9,11,-1,-1,-1,-1,-1,-1],"loss_changes":[1.4560961E1,7.258836E0,1.5848218E1,4.177406E0,0E0,7.57199E0,1.5081982E1,0E0,0E0,0E0,0E0,0E0,0E0],"parents":[2147483647,0,0,1,1,2,2,3,3,5,5,6,6],"right_children":[2,4,6,8,-1,10,12,-1,-1,-1,-1,-1,-1],"split_conditions":[-1.0079477E0,-9.659387E-1,-8.936202E-1,-1.1755525E0,-1.2275453E-2,-8.7859344E-1,2.3534458E0,-4.3723825E-3,-4.8194484E-5,5.4078256E-3,-3.6589527E-3,1.557264E-3,-8.724525E-3],"split_indices":[20,3,0,4,0,20,3,0,0,0,0,0,0],"split_type":[0,0,0,0,0,0,0,0,0,0,0,0,0],"sum_hessian":[7.516544E2,9.993459E1,6.517198E2,9.2228355E1,7.70624E0,1.10469894E2,5.4124994E2,5.503916E1,3.7189194E1,9.242183E0,1.01227715E2,5.2757117E2,1.3678757E1],"tree_param":{"num_deleted":"0","num_feature":"25","num_nodes":"13","size_leaf_vector":"1"}},{"base_weights":[-3.2415427E-2,1.3741148E-1,-3.8879058E-1,-3.980825E-2,3.3773097E-1,-4.6806568E-1,-4.4164557E-2,2.8391138E-3,-1.6021944E-3,-1.9189616E-3,4.5801243E-3,1.0500601E-4,-5.2876235E-3,6.515572E-3,-6.5958854E-3],"categories":[],"categories_nodes":[],"categories_segments":[],"categories_sizes":[],"default_left":[0,0,0,0,0,0,0,0,0,0,0,0,0,0,0],"id":75,"left_children":[1,3,5,7,9,11,13,-1,-1,-1,-1,-1,-1,-1,-1],"loss_changes":[4.50919E1,1.7931717E1,6.548046E0,1.0519334E1,1.5187752E1,5.6804047E0,2.0154623E1,0E0,0E0,0E0,0E0,0E0,0E0,0E0,0E0],"parents":[2147483647,0,0,1,1,2,2,3,3,4,4,5,5,6,6],"right_children":[2,4,6,8,10,12,14,-1,-1,-1,-1,-1,-1,-1,-1],"split_conditions":[2.5145358E-1,1.6942725E-1,2.9631355E-1,-6.100294E-1,-7.790641E-1,-1.3974689E0,2.209635E0,2.8391138E-3,-1.6021944E-3,-1.9189616E-3,4.5801243E-3,1.0500601E-4,-5.2876235E-3,6.515572E-3,-6.5958854E-3],"split_indices":[19,23,3,19,0,23,17,0,0,0,0,0,0,0,0],"split_type":[0,0,0,0,0,0,0,0,0,0,0,0,0,0,0],"sum_hessian":[7.431659E2,5.0373203E2,2.3943387E2,2.6770163E2,2.3603041E2,1.9436537E2,4.5068493E1,7.221019E1,1.9549144E2,4.3572998E1,1.9245741E2,2.1969852E1,1.7239552E2,2.1126637E1,2.3941856E1],"tree_param":{"num_deleted":"0","num_feature":"25","num_nodes":"15","size_leaf_vector":"1"}},{"base_weights":[-1.2926465E-2,2.8189588E-1,-1.940008E-1,3.891047E-2,5.515676E-1,-3.153447E-1,4.209878E-2,1.2561292E-3,-8.065205E-3,1.5009652E-2,4.818053E-3,-2.8387355E-3,-1.1603986E-2,1.1882059E-3,-8.365687E-3],"categories":[],"categories_nodes":[],"categories_segments":[],"categories_sizes":[],"default_left":[0,0,0,0,0,0,0,0,0,0,0,0,0,0,0],"id":76,"left_children":[1,3,5,7,9,11,13,-1,-1,-1,-1,-1,-1,-1,-1],"loss_changes":[4.0645176E1,1.8962128E1,1.3525087E1,1.1350884E1,8.366432E0,7.9585896E0,1.0952181E1,0E0,0E0,0E0,0E0,0E0,0E0,0E0,0E0],"parents":[2147483647,0,0,1,1,2,2,3,3,4,4,5,5,6,6],"right_children":[2,4,6,8,10,12,14,-1,-1,-1,-1,-1,-1,-1,-1],"split_conditions":[-3.9447495E-1,-3.2540357E-1,-1.94328E-2,9.3706155E-1,-1.0398653E0,3.6859827E0,2.3534458E0,1.2561292E-3,-8.065205E-3,1.5009652E-2,4.818053E-3,-2.8387355E-3,-1.1603986E-2,1.1882059E-3,-8.365687E-3],"split_indices":[19,20,3,24,19,19,3,0,0,0,0,0,0,0,0],"split_type":[0,0,0,0,0,0,0,0,0,0,0,0,0,0,0],"sum_hessian":[7.593385E2,2.887095E2,4.70629E2,1.5247107E2,1.3623845E2,3.106395E2,1.5998952E2,1.3906119E2,1.3409882E1,7.921332E0,1.2831711E2,3.007741E2,9.865376E0,1.47937E2,1.2052509E1],"tree_param":{"num_deleted":"0","num_feature":"25","num_nodes":"15","size_leaf_vector":"1"}},{"base_weights":[-9.718042E-3,2.6088953E-1,-1.8520553E-1,2.3152204E-1,9.090586E-3,-5.7430565E-1,-1.16041996E-1,3.0950282E-3,-4.7047788E-4,4.009593E-3,-7.076381E-3,-3.9336478E-4,-5.0909845E-3],"categories":[],"categories_nodes":[],"categories_segments":[],"categories_sizes":[],"default_left":[0,0,0,0,0,0,0,0,0,0,0,0,0],"id":77,"left_children":[1,3,5,7,-1,9,11,-1,-1,-1,-1,-1,-1],"loss_changes":[3.588042E1,5.447588E0,1.226701E1,6.220873E0,0E0,9.245232E0,1.1749994E1,0E0,0E0,0E0,0E0,0E0,0E0],"parents":[2147483647,0,0,1,1,2,2,3,3,5,5,6,6],"right_children":[2,4,6,8,-1,10,12,-1,-1,-1,-1,-1,-1],"split_conditions":[-3.688832E-1,7.4839485E-1,-1.0652903E0,3.3636284E-3,9.090586E-3,-1.3495473E0,1.3473871E0,3.0950282E-3,-4.7047788E-4,4.009593E-3,-7.076381E-3,-3.9336478E-4,-5.0909845E-3],"split_indices":[19,0,5,0,0,5,0,0,0,0,0,0,0],"split_type":[0,0,0,0,0,0,0,0,0,0,0,0,0],"sum_hessian":[7.5354675E2,2.962432E2,4.5730356E2,2.8470105E2,1.1542153E1,6.7916336E1,3.8938724E2,2.2234763E2,6.2353416E1,7.9269724E0,5.998936E1,3.2672623E2,6.2660995E1],"tree_param":{"num_deleted":"0","num_feature":"25","num_nodes":"13","size_leaf_vector":"1"}},{"base_weights":[-7.010103E-2,-3.1968972E-1,1.06682435E-1,1.1735769E-1,-4.0753496E-1,-1.8415168E-1,2.3143014E-1,-1.6964291E-3,5.5598095E-3,-4.4717686E-3,4.3810494E-3,4.6995017E-4,-3.9641075E-3,2.6889874E-3,-8.978093E-3],"categories":[],"categories_nodes":[],"categories_segments":[],"categories_sizes":[],"default_left":[0,0,0,0,0,0,0,0,0,0,0,0,0,0,0],"id":78,"left_children":[1,3,5,7,9,11,13,-1,-1,-1,-1,-1,-1,-1,-1],"loss_changes":[3.3320927E1,1.2066393E1,1.609193E1,6.7872577E0,8.941242E0,6.560863E0,1.3358646E1,0E0,0E0,0E0,0E0,0E0,0E0,0E0,0E0],"parents":[2147483647,0,0,1,1,2,2,3,3,4,4,5,5,6,6],"right_children":[2,4,6,8,10,12,14,-1,-1,-1,-1,-1,-1,-1,-1],"split_conditions":[-3.871777E-1,-4.5187384E-1,-5.947073E-1,-7.936552E-1,2.2371347E0,-3.093787E-1,2.3608396E0,-1.6964291E-3,5.5598095E-3,-4.4717686E-3,4.3810494E-3,4.6995017E-4,-3.9641075E-3,2.6889874E-3,-8.978093E-3],"split_indices":[23,19,3,23,2,19,3,0,0,0,0,0,0,0,0],"split_type":[0,0,0,0,0,0,0,0,0,0,0,0,0,0,0],"sum_hessian":[7.5340704E2,3.1204428E2,4.4136273E2,5.216703E1,2.5987726E2,1.3234357E2,3.0901917E2,3.1904482E1,2.0262547E1,2.4869035E2,1.1186911E1,6.37258E1,6.861777E1,2.998325E2,9.186682E0],"tree_param":{"num_deleted":"0","num_feature":"25","num_nodes":"15","size_leaf_vector":"1"}},{"base_weights":[-1.2930882E-2,-2.6554817E-1,1.578363E-1,1.1501907E-1,-3.645525E-1,2.300042E-1,-3.4098604E-1,4.8144823E-3,-2.8349392E-4,-4.1106935E-3,4.948682E-3,-5.1295356E-4,3.3075896E-3,-8.001409E-3,-1.1144605E-3],"categories":[],"categories_nodes":[],"categories_segments":[],"categories_sizes":[],"default_left":[0,0,0,0,0,0,0,0,0,0,0,0,0,0,0],"id":79,"left_children":[1,3,5,7,9,11,13,-1,-1,-1,-1,-1,-1,-1,-1],"loss_changes":[3.1865862E1,1.1266905E1,1.5946459E1,3.2846375E0,9.664364E0,1.0947916E1,5.825011E0,0E0,0E0,0E0,0E0,0E0,0E0,0E0,0E0],"parents":[2147483647,0,0,1,1,2,2,3,3,4,4,5,5,6,6],"right_children":[2,4,6,8,10,12,14,-1,-1,-1,-1,-1,-1,-1,-1],"split_conditions":[-3.871777E-1,-3.8845557E-1,1.0474628E0,-7.284482E-1,2.1689138E0,-7.109313E-1,1.2643368E0,4.8144823E-3,-2.8349392E-4,-4.1106935E-3,4.948682E-3,-5.1295356E-4,3.3075896E-3,-8.001409E-3,-1.1144605E-3],"split_indices":[23,19,19,18,20,0,19,0,0,0,0,0,0,0,0],"split_type":[0,0,0,0,0,0,0,0,0,0,0,0,0,0,0],"sum_hessian":[7.367114E2,2.969201E2,4.3979135E2,6.126376E1,2.3565634E2,3.8467657E2,5.5114773E1,1.6565811E1,4.4697952E1,2.2405109E2,1.1605252E1,1.0157574E2,2.8310083E2,1.7541067E1,3.7573704E1],"tree_param":{"num_deleted":"0","num_feature":"25","num_nodes":"15","size_leaf_vector":"1"}},{"base_weights":[-4.6523593E-2,-1.8690278E-1,1.0499515E-1,2.3747946E-1,-2.678891E-1,-1.1501596E-1,2.2173187E-1,-4.8957984E-3,3.5398863E-3,-3.106222E-3,7.4578235E-3,